{"learner":{"attributes":{"best_iteration":"19","best_ntree_limit":"20","scikit_learn":"{\"n_estimators\": 20, \"objective\": \"reg:linear\", \"max_depth\": null, \"max_leaves\": null, \"max_bin\": null, \"grow_policy\": null, \"learning_rate\": null, \"verbosity\": null, \"booster\": null, \"tree_method\": null, \"gamma\": null, \"min_child_weight\": null, \"max_delta_step\": null, \"subsample\": null, \"sampling_method\": null, \"colsample_bytree\": null, \"colsample_bylevel\": null, \"colsample_bynode\": null, \"reg_alpha\": null, \"reg_lambda\": null, \"scale_pos_weight\": null, \"base_score\": null, \"missing\": NaN, \"num_parallel_tree\": null, \"random_state\": null, \"n_jobs\": null, \"monotone_constraints\": null, \"interaction_constraints\": null, \"importance_type\": null, \"gpu_id\": null, \"validate_parameters\": null, \"predictor\": null, \"enable_categorical\": false, \"feature_types\": null, \"max_cat_to_onehot\": null, \"max_cat_threshold\": null, \"eval_metric\": \"mae\", \"early_stopping_rounds\": null, \"callbacks\": null, \"kwargs\": {\"seed\": 42}, \"_estimator_type\": \"regressor\"}"},"feature_names":[],"feature_types":[],"gradient_booster":{"model":{"gbtree_model_param":{"num_parallel_tree":"1","num_trees":"20","size_leaf_vector":"0"},"tree_info":[0,0,0,0,0,0,0,0,0,0,0,0,0,0,0,0,0,0,0,0],"trees":[{"base_weights":[4.698287E2,4.386495E2,7.7672174E2,3.8494434E2,4.9348138E2,7.1352454E2,1.1816786E3,3.4007062E2,4.201517E2,4.7427527E2,5.77855E2,7.6847797E2,5.863714E2,1.36455E3,5.796E2,2.9322388E2,3.543495E2,4.2837436E2,5.055535E2,6.049773E2,8.2865955E2,9.449773E2,6.9836536E2],"categories":[],"categories_nodes":[],"categories_segments":[],"categories_sizes":[],"default_left":[1,1,1,1,1,1,1,1,0,1,0,1,0,0,0,0,0,0,0,0,1,0,0],"id":0,"left_children":[1,3,5,7,9,11,13,15,-1,17,-1,19,-1,-1,-1,-1,-1,-1,-1,-1,21,-1,-1],"loss_changes":[1.1725376E7,3.187696E6,2.099936E6,7.7976E5,6.39888E5,2.62112E5,7.50546E5,7.1354E4,0E0,4.51032E5,0E0,1.67784E5,0E0,0E0,0E0,0E0,0E0,0E0,0E0,0E0,5.2368E4,0E0,0E0],"parents":[2147483647,0,0,1,1,2,2,3,3,4,4,5,5,6,6,7,7,9,9,11,11,20,20],"right_children":[2,4,6,8,10,12,14,16,-1,18,-1,20,-1,-1,-1,-1,-1,-1,-1,-1,22,-1,-1],"split_conditions":[9.6E1,5.05E1,1.325E2,3.85E1,4.5E0,4.0647324E1,4.063466E1,2.75E1,1.2604552E2,6.65E1,1.733565E2,4.045259E1,1.7591142E2,4.0936502E2,1.7388E2,8.796716E1,1.0630485E2,1.2851231E2,1.5166606E2,1.814932E2,4.0634647E1,2.834932E2,2.0950961E2],"split_indices":[0,0,0,0,3,1,1,0,0,0,0,1,0,0,0,0,0,0,0,0,1,0,0],"split_type":[0,0,0,0,0,0,0,0,0,0,0,0,0,0,0,0,0,0,0,0,0,0,0],"sum_hessian":[1.26E3,1.146E3,1.14E2,5.83E2,5.63E2,1.01E2,1.3E1,2.61E2,3.22E2,4.64E2,9.9E1,6.7E1,3.4E1,9E0,4E0,6.6E1,1.95E2,1.94E2,2.7E2,2.1E1,4.6E1,2.1E1,2.5E1],"tree_param":{"num_deleted":"0","num_feature":"5","num_nodes":"23","size_leaf_vector":"0"}},{"base_weights":[3.3063068E2,3.0772934E2,5.5617175E2,2.8018555E2,3.615168E2,5.0218658E2,8.3784E2,2.3925279E2,3.0161182E2,3.789948E2,3.2346335E2,4.7704736E2,8.123363E2,9.7974744E2,4.9515128E2,2.302608E2,2.9603653E2,2.8150043E2,3.376499E2,1.3294054E2,3.8039783E2,1.3087955E2,2.3363936E2,3.121309E2,2.6300632E2,6.672724E1,3.388371E2,2.0908075E2,2.4778484E2,3.2823502E2,2.4314207E2,3.2976535E2,4.4163544E2],"categories":[],"categories_nodes":[],"categories_segments":[],"categories_sizes":[],"default_left":[1,1,1,1,1,1,1,1,1,1,0,0,0,0,0,1,0,1,1,0,0,0,1,1,0,0,1,0,0,0,0,0,0],"id":1,"left_children":[1,3,5,7,9,11,13,15,17,19,-1,-1,-1,-1,-1,21,-1,23,25,-1,-1,-1,27,29,-1,-1,31,-1,-1,-1,-1,-1,-1],"loss_changes":[6.34216E6,1.598008E6,1.327928E6,5.97016E5,1.33468E5,3.84372E5,3.41587E5,6.8165E4,2.65164E5,3.8496E4,0E0,0E0,0E0,0E0,0E0,4.8326E4,0E0,1.02016E5,3.3034E4,0E0,0E0,0E0,2.6703E4,5.0181E4,0E0,0E0,1.4762E4,0E0,0E0,0E0,0E0,0E0,0E0],"parents":[2147483647,0,0,1,1,2,2,3,3,4,4,5,5,6,6,7,7,8,8,9,9,15,15,17,17,18,18,22,22,23,23,26,26],"right_children":[2,4,6,8,10,12,14,16,18,20,-1,-1,-1,-1,-1,22,-1,24,26,-1,-1,-1,28,30,-1,-1,32,-1,-1,-1,-1,-1,-1],"split_conditions":[9.6E1,6.25E1,1.29E2,3.95E1,4.0642124E1,6.5E0,4.063466E1,4.5E0,2.5E0,1.9515E3,9.703901E1,1.4311421E2,2.437009E2,2.9392426E2,1.485454E2,2.05E1,8.881096E1,1.9735E3,1.868E3,3.9882164E1,1.14119354E2,3.9263866E1,2.298095E1,4.063991E1,7.89019E1,2.0018173E1,2.02E3,6.2724228E1,7.433546E1,9.847051E1,7.294263E1,9.892961E1,1.3249063E2],"split_indices":[0,0,0,0,1,3,1,3,3,4,0,0,0,0,0,0,0,4,4,0,0,0,2,1,0,0,4,0,0,0,0,0,0],"split_type":[0,0,0,0,0,0,0,0,0,0,0,0,0,0,0,0,0,0,0,0,0,0,0,0,0,0,0,0,0,0,0,0,0],"sum_hessian":[1.26E3,1.146E3,1.14E2,7.62E2,3.84E2,9.8E1,1.6E1,2.66E2,4.96E2,2.57E2,1.27E2,9.3E1,5E0,1E1,6E0,2.34E2,3.2E1,3.24E2,1.72E2,2E0,2.55E2,9E0,2.25E2,1.16E2,2.08E2,1E0,1.71E2,8.8E1,1.37E2,9.1E1,2.5E1,1.61E2,1E1],"tree_param":{"num_deleted":"0","num_feature":"5","num_nodes":"33","size_leaf_vector":"0"}},{"base_weights":[2.3290636E2,2.16298E2,3.965314E2,1.9359224E2,2.4930327E2,3.5543784E2,6.125156E2,1.6846996E2,2.0917612E2,2.3373964E2,2.883317E2,3.3545566E2,6.092522E2,6.8511523E2,3.012534E2,1.62856E2,2.2647845E2,1.9513338E2,2.3321881E2,2.1461224E2,2.4829506E2,2.718186E2,3.8693457E2,3.2314636E2,6.011223E2,1.3615295E2,6.766415E2,1.425977E2,1.752232E2,2.7314984E2,1.3389996E2,2.0902644E2,1.6073187E2,5.6718155E1,2.3402815E2,2.5026888E2,2.006538E2,2.838681E2,2.2938493E2,2.748791E2,1.1970093E2,3.4940475E2,2.656115E2,1.4375882E2,1.44043045E1,2.1167769E2,1.6083629E2,2.5371133E2,1.8974695E2,1.5960124E2,2.3769894E2,2.8524997E2,1.9361038E2,1.6193983E2,2.0908452E2,3.0509998E2,2.1737706E2,2.1709877E2,2.7759686E2,6.68573E1,2.7617416E2],"categories":[],"categories_nodes":[],"categories_segments":[],"categories_sizes":[],"default_left":[1,1,1,1,1,1,1,1,1,1,1,1,1,0,0,1,1,1,1,1,1,1,0,1,0,0,0,1,1,0,0,1,0,0,1,1,1,1,1,1,0,0,0,0,0,0,0,0,0,0,0,0,0,0,0,0,0,0,0,0,0],"id":2,"left_children":[1,3,5,7,9,11,13,15,17,19,21,23,25,-1,-1,27,29,31,33,35,37,39,-1,41,-1,-1,-1,43,45,-1,-1,47,-1,-1,49,51,53,55,57,59,-1,-1,-1,-1,-1,-1,-1,-1,-1,-1,-1,-1,-1,-1,-1,-1,-1,-1,-1,-1,-1],"loss_changes":[3.341048E6,8.11308E5,8.02976E5,2.3255E5,2.14448E5,2.97728E5,1.77765E5,5.00675E4,9.5618E4,4.0536E4,1.03239E5,1.13146E5,9.9164E4,0E0,0E0,3.6897E4,5.4161375E4,9.5446E4,8.0115E3,2.59325E4,5.9333E4,1.9704E4,0E0,4.6185E4,0E0,0E0,0E0,1.2665125E4,4.41E4,0E0,0E0,1.146835E5,0E0,0E0,2.497E3,2.206975E4,3.6755E3,1.8382E4,1.4369E4,1.117E4,0E0,0E0,0E0,0E0,0E0,0E0,0E0,0E0,0E0,0E0,0E0,0E0,0E0,0E0,0E0,0E0,0E0,0E0,0E0,0E0,0E0],"parents":[2147483647,0,0,1,1,2,2,3,3,4,4,5,5,6,6,7,7,8,8,9,9,10,10,11,11,12,12,15,15,16,16,17,17,18,18,19,19,20,20,21,21,23,23,27,27,28,28,31,31,34,34,35,35,36,36,37,37,38,38,39,39],"right_children":[2,4,6,8,10,12,14,16,18,20,22,24,26,-1,-1,28,30,32,34,36,38,40,-1,42,-1,-1,-1,44,46,-1,-1,48,-1,-1,50,52,54,56,58,60,-1,-1,-1,-1,-1,-1,-1,-1,-1,-1,-1,-1,-1,-1,-1,-1,-1,-1,-1,-1,-1],"split_conditions":[9.6E1,5.65E1,1.29E2,3.95E1,3.5E0,6.5E0,4.0647324E1,5.5E0,2.5E0,7.45E1,2.0025E3,2.0135E3,1.9695E3,2.0553458E2,9.037602E1,2.2981174E1,1.983E3,2.3024738E1,1.868E3,1.9715E3,1.5E0,1.997E3,1.16080376E2,4.0647324E1,1.803367E2,4.0845886E1,2.0299245E2,4.531102E1,1.971E3,8.1944954E1,4.016999E1,4.060012E1,4.8219563E1,1.7015448E1,2.2934902E1,4.060299E1,3.8040012E1,8.25E1,1.9825E3,3.7697845E1,3.591028E1,1.04821434E2,7.968346E1,4.3127647E1,4.3212914E0,6.3503307E1,4.825089E1,7.61134E1,5.6924088E1,4.7880375E1,7.1309685E1,8.5575E1,5.808312E1,4.858195E1,6.2725357E1,9.153E1,6.521312E1,6.512963E1,8.327906E1,2.005719E1,8.285225E1],"split_indices":[0,0,0,0,3,3,1,3,3,0,4,4,4,0,0,2,4,2,4,4,3,4,0,1,0,0,0,1,4,0,0,1,0,0,2,1,1,0,4,1,0,0,0,0,0,0,0,0,0,0,0,0,0,0,0,0,0,0,0,0,0],"split_type":[0,0,0,0,0,0,0,0,0,0,0,0,0,0,0,0,0,0,0,0,0,0,0,0,0,0,0,0,0,0,0,0,0,0,0,0,0,0,0,0,0,0,0,0,0,0,0,0,0,0,0,0,0,0,0,0,0,0,0,0,0],"sum_hessian":[1.26E3,1.146E3,1.14E2,6.83E2,4.63E2,9.8E1,1.6E1,2.66E2,4.17E2,3.36E2,1.27E2,9.3E1,5E0,1.2E1,4E0,2.46E2,2E1,2.69E2,1.48E2,1.52E2,1.84E2,1.12E2,1.5E1,9.1E1,2E0,1E0,4E0,9.8E1,1.48E2,1.2E1,8E0,1.88E2,8.1E1,1E0,1.47E2,3.8E1,1.14E2,5.9E1,1.25E2,1.09E2,3E0,5.9E1,3.2E1,9.7E1,1E0,3.8E1,1.1E2,5.3E1,1.35E2,9E0,1.38E2,2.1E1,1.7E1,2.4E1,9E1,4.2E1,1.7E1,1.04E2,2.1E1,1E0,1.08E2],"tree_param":{"num_deleted":"0","num_feature":"5","num_nodes":"61","size_leaf_vector":"0"}},{"base_weights":[1.6487297E2,1.526412E2,2.8543796E2,1.4123184E2,1.8935567E2,2.571338E2,4.7126578E2,1.0873262E2,1.477163E2,1.7776389E2,2.4032614E2,2.4149431E2,4.6711624E2,5.466085E2,2.2632713E2,5.991039E1,1.1254389E2,1.3661354E2,1.6774008E2,2.243529E2,1.6992366E2,2.2186974E2,3.2946652E2,2.3139215E2,4.8089786E2,1.1573001E2,5.142475E2,1.4570663E1,6.247448E1,1.13186646E2,1.224366E1,1.474699E2,1.1302678E2,1.3091394E2,1.7739684E2,5.1369324E1,2.2869627E2,1.5539925E2,1.978891E2,2.2461847E2,5.4585938E1,3.2314606E2,2.1552977E2,1.0710808E2,1.3613431E2,1.8113312E2,1.3403615E2,1.0983291E2,1.8623738E2,1.2109971E2,2.3067764E2,1.6930525E2,2.2503647E2,2.3288261E2,5.783264E1,1.2860065E2,1.6438829E2,1.6158076E2,2.160896E2,3.4160742E2,6.003557E1,1.8425937E2,2.485345E2],"categories":[],"categories_nodes":[],"categories_segments":[],"categories_sizes":[],"default_left":[1,1,1,1,1,1,1,1,1,1,1,1,1,0,0,1,1,1,1,1,1,1,0,1,0,0,0,0,0,1,0,1,1,1,1,0,1,1,1,0,0,1,1,0,0,0,0,0,0,0,0,0,0,0,0,0,0,0,0,0,0,0,0],"id":3,"left_children":[1,3,5,7,9,11,13,15,17,19,21,23,25,-1,-1,27,29,31,33,35,37,39,-1,41,-1,-1,-1,-1,-1,43,-1,45,47,49,51,-1,53,55,57,-1,-1,59,61,-1,-1,-1,-1,-1,-1,-1,-1,-1,-1,-1,-1,-1,-1,-1,-1,-1,-1,-1,-1],"loss_changes":[1.816056E6,4.5372E5,4.83687E5,1.6918E5,1.16214E5,2.22164E5,1.3464825E5,2.116875E4,1.39377E5,4.3332E4,4.22625E3,1.233175E5,3.9853625E4,0E0,0E0,6.0101953E2,7.510875E3,1.04964E5,6.7815E4,1.00405E4,4.84535E4,7.051375E3,0E0,6.86185E4,0E0,0E0,0E0,0E0,0E0,4.528875E3,0E0,1.213375E5,1.5554E4,2.7874E4,3.89965E4,0E0,6.56E3,1.08985E4,6.71625E3,0E0,0E0,3.777975E4,4.089925E4,0E0,0E0,0E0,0E0,0E0,0E0,0E0,0E0,0E0,0E0,0E0,0E0,0E0,0E0,0E0,0E0,0E0,0E0,0E0,0E0],"parents":[2147483647,0,0,1,1,2,2,3,3,4,4,5,5,6,6,7,7,8,8,9,9,10,10,11,11,12,12,15,15,16,16,17,17,18,18,19,19,20,20,21,21,23,23,29,29,31,31,32,32,33,33,34,34,36,36,37,37,38,38,41,41,42,42],"right_children":[2,4,6,8,10,12,14,16,18,20,22,24,26,-1,-1,28,30,32,34,36,38,40,-1,42,-1,-1,-1,-1,-1,44,-1,46,48,50,52,-1,54,56,58,-1,-1,60,62,-1,-1,-1,-1,-1,-1,-1,-1,-1,-1,-1,-1,-1,-1,-1,-1,-1,-1,-1,-1],"split_conditions":[9.6E1,7.25E1,1.325E2,3.35E1,4.5E0,6.5E0,4.063466E1,2.15E1,2.5E0,1.9685E3,2.0005E3,2.0135E3,1.9695E3,1.6398256E2,6.789814E1,1.65E1,4.5534252E1,2.3024738E1,2.2939629E1,1.9185E3,1.9795E3,7.5E0,9.883996E1,1.9655E3,1.4426936E2,3.4719006E1,1.5427426E2,4.371199E0,1.8742344E1,4.0666862E1,3.673098E0,4.060012E1,2.02E3,2.017E3,6.5E0,1.5410798E1,4.0842197E1,7.95E1,2.2981125E1,6.7385544E1,1.6375782E1,2.3702024E1,1.09E2,3.2132423E1,4.0840294E1,5.433994E1,4.0210846E1,3.2949875E1,5.5871216E1,3.6329914E1,6.920329E1,5.0791576E1,6.751094E1,6.9864784E1,1.7349792E1,3.8580196E1,4.931649E1,4.847423E1,6.482688E1,1.0248223E2,1.8010672E1,5.5277813E1,7.4560356E1],"split_indices":[0,0,0,0,3,3,1,0,3,4,4,4,4,0,0,0,1,2,2,4,4,3,0,4,0,0,0,0,0,1,0,1,4,4,3,0,1,0,2,0,0,2,0,0,0,0,0,0,0,0,0,0,0,0,0,0,0,0,0,0,0,0,0],"split_type":[0,0,0,0,0,0,0,0,0,0,0,0,0,0,0,0,0,0,0,0,0,0,0,0,0,0,0,0,0,0,0,0,0,0,0,0,0,0,0,0,0,0,0,0,0,0,0,0,0,0,0,0,0,0,0,0,0,0,0,0,0,0,0],"sum_hessian":[1.26E3,1.146E3,1.14E2,8.78E2,2.68E2,1.01E2,1.3E1,1.49E2,7.29E2,2.22E2,4.6E1,9.6E1,5E0,9E0,4E0,1.2E1,1.37E2,4.74E2,2.55E2,2.8E1,1.94E2,4.1E1,5E0,9.4E1,2E0,1E0,4E0,1E0,1.1E1,1.36E2,1E0,3.21E2,1.53E2,5.6E1,1.99E2,1E0,2.7E1,1.32E2,6.2E1,4E1,1E0,1.1E1,8.3E1,1.12E2,2.4E1,8.8E1,2.33E2,1.49E2,4E0,5.3E1,3E0,1.74E2,2.5E1,2.6E1,1E0,3.7E1,9.5E1,2.4E1,3.8E1,1E1,1E0,4.6E1,3.7E1],"tree_param":{"num_deleted":"0","num_feature":"5","num_nodes":"63","size_leaf_vector":"0"}},{"base_weights":[1.1684555E2,1.0771492E2,2.0689766E2,9.537666E1,1.2567107E2,1.9483073E2,4.930469E2,1.11899345E2,8.841495E1,1.2119733E2,1.6887091E2,2.4185823E2,1.5441478E2,1.1883814E2,7.3393936E1,8.544333E1,1.5338153E2,1.2591313E2,8.5039795E1,1.000503E2,2.0085011E2,1.4344664E2,3.203775E2,1.4337273E2,4.195114E2,4.3843143E1,1.2283252E2,5.736303E0,8.527079E1,5.791746E1,8.951416E1,8.690967E1,1.7566165E2,1.1358625E2,1.401208E2,7.3050255E1,1.1236496E2,1.1192592E2,1.5239156E1,2.137132E2,2.6707682E1,2.3593651E2,9.950909E1,3.3744226E2,-6.16532E1,1.0081686E2,1.7545352E2,1.9614798E1,6.414853E1,8.577141E1,1.2819702E2,3.8095684E1,-1.9967308E1,4.2797615E1,1.0313716E2,5.3972633E1,1.02610565E2,8.377966E1,1.09219345E2,8.237659E1,1.2184911E2,1.7181241E2,1.2929169E2,5.6042137E1,8.977961E1,1.0215881E1,1.19436745E2,5.6539467E1,1.2288791E2,-1.0706329E0,2.3929367E1,6.4492546E1,2.2388489E2,3.0333895E1,1.8218634E2,2.6509042E2,4.2669614E2,8.0306625E1,1.2707845E2,1.2819234E2,2.0212672E2],"categories":[],"categories_nodes":[],"categories_segments":[],"categories_sizes":[],"default_left":[1,1,1,1,1,1,0,1,1,1,1,1,1,1,1,1,1,1,1,1,1,1,1,1,0,1,1,1,1,1,1,0,0,1,1,1,1,1,1,1,0,0,1,1,0,1,1,0,0,0,0,0,0,0,0,0,0,0,0,0,0,0,0,0,0,0,0,0,0,0,0,0,0,0,0,0,0,0,0,0,0],"id":4,"left_children":[1,3,5,7,9,11,-1,13,15,17,19,21,23,25,27,29,31,33,35,37,39,41,43,45,-1,47,49,51,53,55,57,-1,-1,59,61,63,65,67,69,71,-1,-1,73,75,-1,77,79,-1,-1,-1,-1,-1,-1,-1,-1,-1,-1,-1,-1,-1,-1,-1,-1,-1,-1,-1,-1,-1,-1,-1,-1,-1,-1,-1,-1,-1,-1,-1,-1,-1,-1],"loss_changes":[1.014548E6,2.42129E5,3.010275E5,6.87845E4,6.9208E4,1.755275E5,0E0,4.444675E4,8.071975E4,6.159E4,7.0138875E4,3.4040325E5,1.24267875E5,4.4641E4,2.6028328E4,4.71445E4,1.4353344E4,4.94095E4,8.82775E3,1.3402125E4,5.47725E4,7.4052875E4,1.968245E5,6.6955375E4,0E0,3.6613984E3,2.041725E4,5.7511855E3,1.6833547E4,5.5691562E3,3.66145E4,0E0,0E0,4.282825E4,3.578575E4,6.0654375E3,8.893109E3,9.44875E2,4.508261E2,2.3506625E4,0E0,0E0,9.741944E4,5.478675E4,0E0,5.4150625E3,1.6949625E4,0E0,0E0,0E0,0E0,0E0,0E0,0E0,0E0,0E0,0E0,0E0,0E0,0E0,0E0,0E0,0E0,0E0,0E0,0E0,0E0,0E0,0E0,0E0,0E0,0E0,0E0,0E0,0E0,0E0,0E0,0E0,0E0,0E0,0E0],"parents":[2147483647,0,0,1,1,2,2,3,3,4,4,5,5,7,7,8,8,9,9,10,10,11,11,12,12,13,13,14,14,15,15,16,16,17,17,18,18,19,19,20,20,21,21,22,22,23,23,25,25,26,26,27,27,28,28,29,29,30,30,33,33,34,34,35,35,36,36,37,37,38,38,39,39,42,42,43,43,45,45,46,46],"right_children":[2,4,6,8,10,12,-1,14,16,18,20,22,24,26,28,30,32,34,36,38,40,42,44,46,-1,48,50,52,54,56,58,-1,-1,60,62,64,66,68,70,72,-1,-1,74,76,-1,78,80,-1,-1,-1,-1,-1,-1,-1,-1,-1,-1,-1,-1,-1,-1,-1,-1,-1,-1,-1,-1,-1,-1,-1,-1,-1,-1,-1,-1,-1,-1,-1,-1,-1,-1],"split_conditions":[9.6E1,5.65E1,1.775E2,1.9705E3,2.0035E3,4.0634647E1,1.4791408E2,4.0640068E1,2.02E3,4.0659775E1,2.2939629E1,4.045259E1,6.5E0,3.7942356E1,4.0651154E1,2.9E1,4.065343E1,7.85E1,2.5E0,2.0205E3,6.5E0,1.035E2,1.5E2,2.5E0,1.2585343E2,1.9685E3,3.3E1,1.5E0,3.65E1,2.3720978E1,3.5E0,2.60729E1,5.2698498E1,3.8065044E1,1.5E0,1.9785E3,6.65E1,1.5E0,1.5E0,1.5E0,8.012305E0,7.078095E1,2.3683723E1,1.175E2,-1.849596E1,1.982E3,1.04E2,5.8844395E0,1.924456E1,2.5731424E1,3.8459106E1,1.1428705E1,-5.9901924E0,1.2839285E1,3.0941149E1,1.6191792E1,3.078317E1,2.51339E1,3.2765804E1,2.4712976E1,3.6554737E1,5.1543724E1,3.8787506E1,1.6812641E1,2.6933884E1,3.0647645E0,3.5831024E1,1.6961842E1,3.6866375E1,-3.2118988E-1,7.1788106E0,1.9347765E1,6.716547E1,9.100169E0,5.4655903E1,7.952713E1,1.2800885E2,2.409199E1,3.812354E1,3.8457703E1,6.063802E1],"split_indices":[0,0,0,4,4,1,0,1,4,1,2,1,3,1,1,0,1,0,3,4,3,0,0,3,0,4,0,3,0,2,3,0,0,1,3,4,0,3,3,3,0,0,2,0,0,4,0,0,0,0,0,0,0,0,0,0,0,0,0,0,0,0,0,0,0,0,0,0,0,0,0,0,0,0,0,0,0,0,0,0,0],"split_type":[0,0,0,0,0,0,0,0,0,0,0,0,0,0,0,0,0,0,0,0,0,0,0,0,0,0,0,0,0,0,0,0,0,0,0,0,0,0,0,0,0,0,0,0,0,0,0,0,0,0,0,0,0,0,0,0,0,0,0,0,0,0,0,0,0,0,0,0,0,0,0,0,0,0,0,0,0,0,0,0,0],"sum_hessian":[1.26E3,1.146E3,1.14E2,6.83E2,4.63E2,1.11E2,3E0,1.98E2,4.85E2,4.23E2,4E1,4.9E1,6.2E1,1.66E2,3.2E1,4.66E2,1.9E1,3.72E2,5.1E1,1.4E1,2.6E1,2.3E1,2.6E1,6.1E1,1E0,9E0,1.57E2,5E0,2.7E1,6.2E1,4.04E2,6E0,1.3E1,2.04E2,1.68E2,3.8E1,1.3E1,1.2E1,2E0,2.4E1,2E0,6E0,1.7E1,2.5E1,1E0,2.8E1,3.3E1,5E0,4E0,2.2E1,1.35E2,2E0,3E0,9E0,1.8E1,5.9E1,3E0,3.17E2,8.7E1,4.5E1,1.59E2,3.9E1,1.29E2,2.1E1,1.7E1,1E0,1.2E1,3E0,9E0,1E0,1E0,2E0,2.2E1,1E1,7E0,1.6E1,9E0,1.8E1,1E1,1.4E1,1.9E1],"tree_param":{"num_deleted":"0","num_feature":"5","num_nodes":"81","size_leaf_vector":"0"}},{"base_weights":[8.2957855E1,7.602087E1,1.5142537E2,6.528816E1,8.699938E1,1.4183458E2,3.8211136E2,1.07776054E2,6.3590405E1,8.07375E1,1.1524713E2,1.3573615E2,4.093797E2,4.5251968E2,8.544318E1,1.8176037E1,1.2778924E2,7.07744E1,4.8728703E1,9.864803E1,6.968911E1,1.0352571E2,1.7031421E2,1.2603579E2,2.8448657E2,5.478714E0,3.4482666E1,1.3217926E2,2.8774384E1,7.671549E1,4.839293E1,4.2596832E1,1.0754168E2,7.6755714E1,1.2368572E2,6.582421E1,9.607742E1,8.864671E1,1.3764955E2,2.2743669E2,6.438007E1,1.0359068E2,1.7254797E2,5.8606934E1,3.1794113E2,7.391887E1,1.5799434E2,-1.0752855E1,5.320382E1,3.3227436E1,5.774212E1,7.104544E1,1.3920837E2,1.3130722E2,3.8678802E1,9.7007645E1,6.3069775E1,1.15207214E2,6.2890553E1,5.0813244E1,1.145594E2,1.7023303E2,9.698408E1,4.931473E0,1.0773366E2,7.111837E1,1.266382E2,2.1363107E2,9.291005E1],"categories":[],"categories_nodes":[],"categories_segments":[],"categories_sizes":[],"default_left":[1,1,1,1,1,1,1,1,1,1,1,1,0,0,0,1,1,1,1,1,1,1,1,1,1,0,0,0,0,1,1,1,0,1,1,1,1,1,1,0,1,1,1,0,0,0,0,0,0,0,0,0,0,0,0,0,0,0,0,0,0,0,0,0,0,0,0,0,0],"id":5,"left_children":[1,3,5,7,9,11,13,15,17,19,21,23,-1,-1,-1,25,27,29,31,33,35,37,39,41,43,-1,-1,-1,-1,45,47,49,-1,51,53,55,57,59,61,-1,63,65,67,-1,-1,-1,-1,-1,-1,-1,-1,-1,-1,-1,-1,-1,-1,-1,-1,-1,-1,-1,-1,-1,-1,-1,-1,-1,-1],"loss_changes":[5.87411E5,1.2947E5,2.002365E5,3.5273E4,9.04575E4,1.2717175E5,4.4886875E4,3.533408E4,5.676725E4,8.514075E4,4.69145E4,1.24310125E5,0E0,0E0,0E0,8.463318E2,3.5861562E3,4.6550375E4,6.285753E4,8.642975E4,2.3354375E4,3.0954812E4,8.217716E4,9.2786625E4,2.6706625E4,0E0,0E0,0E0,0E0,5.583125E4,2.3904688E4,2.2346688E4,0E0,2.4345562E4,4.6751625E4,1.5956125E4,1.49745625E4,5.4961625E4,1.5290656E4,0E0,1.7509883E4,4.6375688E4,8.812E4,0E0,0E0,0E0,0E0,0E0,0E0,0E0,0E0,0E0,0E0,0E0,0E0,0E0,0E0,0E0,0E0,0E0,0E0,0E0,0E0,0E0,0E0,0E0,0E0,0E0,0E0],"parents":[2147483647,0,0,1,1,2,2,3,3,4,4,5,5,6,6,7,7,8,8,9,9,10,10,11,11,15,15,16,16,17,17,18,18,19,19,20,20,21,21,22,22,23,23,24,24,29,29,30,30,31,31,33,33,34,34,35,35,36,36,37,37,38,38,40,40,41,41,42,42],"right_children":[2,4,6,8,10,12,14,16,18,20,22,24,-1,-1,-1,26,28,30,32,34,36,38,40,42,44,-1,-1,-1,-1,46,48,50,-1,52,54,56,58,60,62,-1,64,66,68,-1,-1,-1,-1,-1,-1,-1,-1,-1,-1,-1,-1,-1,-1,-1,-1,-1,-1,-1,-1,-1,-1,-1,-1,-1,-1],"split_conditions":[9.6E1,5.05E1,1.775E2,2.2894638E1,4.5E0,2.0215E3,2.05E2,2.2371021E1,4.0639835E1,4.060299E1,2.0045E3,6.5E0,1.2281391E2,1.357559E2,2.5632954E1,4.5E1,6.5E0,1.9985E3,2.0135E3,4.058265E1,8.55E1,6.5E0,6.5E0,1.175E2,1.9695E3,1.6436143E0,1.03448E1,3.9653778E1,8.632316E0,6.5E0,2.0005E3,4.35E1,3.2262505E1,2.002E3,8.9E1,1.9655E3,1.9795E3,7.15E1,4.063498E1,6.823101E1,4.0647324E1,2.5E0,2.328416E1,1.758208E1,9.538234E1,2.2175661E1,4.7398304E1,-3.2258568E0,1.5961146E1,9.968231E0,1.7322636E1,2.1313633E1,4.1762512E1,3.9392166E1,1.16036415E1,2.9102295E1,1.8920933E1,3.4562164E1,1.8867167E1,1.5243974E1,3.436782E1,5.1069912E1,2.9095224E1,1.4794419E0,3.23201E1,2.1335512E1,3.7991463E1,6.4089325E1,2.7873016E1],"split_indices":[0,0,0,2,3,4,0,2,1,1,4,3,0,0,0,0,3,4,4,1,0,3,3,0,4,0,0,0,0,3,4,0,0,4,0,4,4,0,1,0,1,3,2,0,0,0,0,0,0,0,0,0,0,0,0,0,0,0,0,0,0,0,0,0,0,0,0,0,0],"split_type":[0,0,0,0,0,0,0,0,0,0,0,0,0,0,0,0,0,0,0,0,0,0,0,0,0,0,0,0,0,0,0,0,0,0,0,0,0,0,0,0,0,0,0,0,0,0,0,0,0,0,0,0,0,0,0,0,0,0,0,0,0,0,0,0,0,0,0,0,0],"sum_hessian":[1.26E3,1.146E3,1.14E2,5.83E2,5.63E2,1.11E2,3E0,2E1,5.63E2,4.64E2,9.9E1,1.1E2,1E0,2E0,1E0,4E0,1.6E1,3.77E2,1.86E2,1.74E2,2.9E2,8.4E1,1.5E1,1.05E2,5E0,3E0,1E0,1.5E1,1E0,2.96E2,8.1E1,1.7E2,1.6E1,9.5E1,7.9E1,2.56E2,3.4E1,6.1E1,2.3E1,9E0,6E0,7.3E1,3.2E1,1E0,4E0,2.88E2,8E0,6E0,7.5E1,1.07E2,6.3E1,8.9E1,6E0,7.2E1,7E0,1.8E1,2.38E2,2E1,1.4E1,2.6E1,3.5E1,1.1E1,1.2E1,3E0,3E0,3.2E1,4.1E1,2E1,1.2E1],"tree_param":{"num_deleted":"0","num_feature":"5","num_nodes":"69","size_leaf_vector":"0"}},{"base_weights":[5.9020477E1,5.3350502E1,1.07522194E2,3.874293E1,5.779775E1,1.0042271E2,3.078252E2,3.5391335E1,1.0150563E2,5.639613E1,1.1144391E2,9.573355E1,3.4797275E2,3.6201578E2,7.262671E1,3.2998116E1,7.148293E1,7.040075E1,2.3738208E2,6.545379E1,4.9859497E1,-1.0370499E1,1.18053154E2,8.201884E1,1.6500633E2,7.95312E1,3.0850145E1,1.0181935E2,5.119521E1,1.1849975E2,3.153878E1,4.5971897E1,8.229367E1,4.4512573E1,6.130106E1,1.2777353E2,2.0379862E1,1.3867598E2,7.280601E1,1.2947263E2,2.4571294E2,3.577702E1,1.1612997E2,4.002282E1,2.3215975E1,6.1498173E1,3.2212524E0,3.0493134E1,1.3287811E2,6.5998695E1,-2.3369079E0,1.254089E2,4.321937E1,1.1507838E2,7.140133E1,5.2671356E1,3.0349966E1,5.2066288E1,8.490731E1,8.9400505E1,1.7530249E2,5.9799885E1,2.3387744E2,9.481328E0,7.696856E1,1.6509425E2,6.0088493E1],"categories":[],"categories_nodes":[],"categories_segments":[],"categories_sizes":[],"default_left":[1,1,1,1,1,1,1,1,1,1,1,1,0,0,0,1,1,1,0,1,1,0,1,1,1,1,1,0,1,1,1,1,1,1,1,1,0,1,1,1,0,0,0,0,0,0,0,0,0,0,0,0,0,0,0,0,0,0,0,0,0,0,0,0,0,0,0],"id":6,"left_children":[1,3,5,7,9,11,13,15,17,19,21,23,-1,-1,-1,25,27,29,-1,31,33,-1,35,37,39,41,43,-1,45,47,49,51,53,55,57,59,-1,61,63,65,-1,-1,-1,-1,-1,-1,-1,-1,-1,-1,-1,-1,-1,-1,-1,-1,-1,-1,-1,-1,-1,-1,-1,-1,-1,-1,-1],"loss_changes":[3.41043E5,7.123475E4,1.5537575E5,5.257247E4,5.87555E4,1.1526975E5,2.4690156E4,1.9666844E4,3.8231594E4,4.6766E4,1.813139E4,1.07123625E5,0E0,0E0,0E0,2.1634781E4,4.0191953E3,1.869332E4,0E0,1.11370375E5,2.7554125E4,0E0,1.6384438E4,4.6276562E4,2.5543E4,1.1858707E4,1.53168125E4,0E0,5.23891E3,2.2750938E3,9.493061E3,3.0657594E4,5.8561375E4,3.7803875E4,2.9368938E4,1.7156812E4,0E0,9.1141875E4,2.4311531E4,2.9624938E4,0E0,0E0,0E0,0E0,0E0,0E0,0E0,0E0,0E0,0E0,0E0,0E0,0E0,0E0,0E0,0E0,0E0,0E0,0E0,0E0,0E0,0E0,0E0,0E0,0E0,0E0,0E0],"parents":[2147483647,0,0,1,1,2,2,3,3,4,4,5,5,6,6,7,7,8,8,9,9,10,10,11,11,15,15,16,16,17,17,19,19,20,20,22,22,23,23,24,24,25,25,26,26,28,28,29,29,30,30,31,31,32,32,33,33,34,34,35,35,37,37,38,38,39,39],"right_children":[2,4,6,8,10,12,14,16,18,20,22,24,-1,-1,-1,26,28,30,-1,32,34,-1,36,38,40,42,44,-1,46,48,50,52,54,56,58,60,-1,62,64,66,-1,-1,-1,-1,-1,-1,-1,-1,-1,-1,-1,-1,-1,-1,-1,-1,-1,-1,-1,-1,-1,-1,-1,-1,-1,-1,-1],"split_conditions":[9.25E1,3.95E1,1.775E2,2.3719025E1,2.0195E3,2.0215E3,2.05E2,2.0165E3,6.5E0,4.063475E1,1.5E0,5.5E0,1.0439183E2,1.0860474E2,2.1788013E1,2.2884918E1,1.5E0,1.9775E3,7.121463E1,4.058194E1,7.25E1,-3.1111498E0,6.5E0,1.967E3,1.125E2,4.5E0,1.9765E3,3.0545807E1,4.0852577E1,3.7716087E1,2.8E1,1.9615E3,4.6E1,2.295348E1,3.5E0,4.5E0,6.113959E0,1.961E3,1.9695E3,1.971E3,7.371388E1,1.0733107E1,3.4838993E1,1.2006846E1,6.9647927E0,1.8449453E1,9.6637577E-1,9.147941E0,3.9863434E1,1.979961E1,-7.010724E-1,3.762267E1,1.2965812E1,3.4523514E1,2.1420399E1,1.5801408E1,9.10499E0,1.5619887E1,2.5472195E1,2.6820152E1,5.2590748E1,1.7939966E1,7.016324E1,2.8443985E0,2.3090569E1,4.952828E1,1.8026548E1],"split_indices":[0,0,0,2,4,4,0,4,3,1,3,3,0,0,0,2,3,4,0,1,0,0,3,4,0,3,4,0,1,1,0,4,0,2,3,3,0,4,4,4,0,0,0,0,0,0,0,0,0,0,0,0,0,0,0,0,0,0,0,0,0,0,0,0,0,0,0],"split_type":[0,0,0,0,0,0,0,0,0,0,0,0,0,0,0,0,0,0,0,0,0,0,0,0,0,0,0,0,0,0,0,0,0,0,0,0,0,0,0,0,0,0,0,0,0,0,0,0,0,0,0,0,0,0,0,0,0,0,0,0,0,0,0,0,0,0,0],"sum_hessian":[1.26E3,1.13E3,1.3E2,2.66E2,8.64E2,1.27E2,3E0,2.54E2,1.2E1,8.44E2,2E1,1.26E2,1E0,2E0,1E0,2.4E2,1.4E1,1.1E1,1E0,3.5E2,4.94E2,1E0,1.9E1,1.07E2,1.9E1,9E0,2.31E2,4E0,1E1,4E0,7E0,1.64E2,1.86E2,3.4E2,1.54E2,1.7E1,2E0,1.3E1,9.4E1,1.5E1,4E0,5E0,4E0,1.03E2,1.28E2,8E0,2E0,1E0,3E0,3E0,4E0,4E0,1.6E2,4.4E1,1.42E2,2.14E2,1.26E2,1.13E2,4.1E1,1.1E1,6E0,8E0,5E0,6E0,8.8E1,9E0,6E0],"tree_param":{"num_deleted":"0","num_feature":"5","num_nodes":"67","size_leaf_vector":"0"}},{"base_weights":[4.2106457E1,3.9162617E1,9.9376015E1,3.8030396E1,1.15781494E2,1.27982025E2,3.8794003E1,3.6265842E1,7.819912E1,8.604573E1,2.9577686E2,1.9892355E2,5.767236E1,-2.4848335E1,7.239005E1,3.249675E1,5.0143894E1,6.3524105E1,2.8204126E2,1.0188415E2,1.3059425E1,1.6937967E1,2.1820317E2,3.7953213E1,1.3692023E2,3.7989666E1,-5.2125946E1,4.6445718E-1,8.433895E1,2.3698946E1,3.5118294E1,6.5069405E1,4.097653E1,1.0190363E1,8.820585E1,1.342934E2,5.4920025E1,1.6630096E0,1.6303894E1,2.3393158E1,2.013794E0,9.18981E1,1.212303E1,4.599225E1,1.0992249E1,-1.2153412E1,-5.768977E1,3.8562317E0,-3.159546E0,7.9577637E-1,9.186144E1,7.4209854E1,2.1840446E1,2.1376299E1,3.7608013E1,6.875418E1,-6.470725E1,4.590692E1,1.8481857E1,4.239278E1,-2.7311153E1,1.7938206E1,1.0373152E2,6.4918724E1,1.7009473E2,3.7048767E1,1.1006058E2,3.419745E1,-8.021566E1,4.72921E1,1.0266343E2],"categories":[],"categories_nodes":[],"categories_segments":[],"categories_sizes":[],"default_left":[1,1,1,1,1,1,1,1,1,1,0,1,1,1,1,1,1,1,0,1,1,1,0,1,0,1,1,1,1,1,1,1,1,1,1,1,0,0,0,0,0,1,1,0,0,0,0,0,0,0,1,0,0,0,0,0,0,0,0,0,0,0,0,0,0,0,0,0,0,0,0],"id":7,"left_children":[1,3,5,7,9,11,13,15,17,19,-1,21,23,25,27,29,31,33,-1,35,37,39,-1,41,-1,43,45,47,49,51,53,55,57,59,61,63,-1,-1,-1,-1,-1,65,67,-1,-1,-1,-1,-1,-1,-1,69,-1,-1,-1,-1,-1,-1,-1,-1,-1,-1,-1,-1,-1,-1,-1,-1,-1,-1,-1,-1],"loss_changes":[2.08703E5,9.9783E4,1.0074869E5,8.1156625E4,6.5538734E4,1.9303056E5,4.6699523E4,5.7844375E4,1.286615E5,1.716525E4,0E0,6.647631E4,2.9182844E4,1.5692811E4,1.1992867E4,1.9856E4,3.0309125E4,6.097053E4,0E0,1.2411547E4,1.2078772E2,2.4190619E2,0E0,2.5360639E4,0E0,1.4258887E2,6.332744E2,4.9059345E1,7.468328E3,1.7998984E4,2.2769375E4,4.748678E4,1.6009469E4,2.048003E4,3.304975E4,6.3435938E3,0E0,0E0,0E0,0E0,0E0,1.8995898E3,3.1279691E4,0E0,0E0,0E0,0E0,0E0,0E0,0E0,4.4064844E2,0E0,0E0,0E0,0E0,0E0,0E0,0E0,0E0,0E0,0E0,0E0,0E0,0E0,0E0,0E0,0E0,0E0,0E0,0E0,0E0],"parents":[2147483647,0,0,1,1,2,2,3,3,4,4,5,5,6,6,7,7,8,8,9,9,11,11,12,12,13,13,14,14,15,15,16,16,17,17,19,19,20,20,21,21,23,23,25,25,26,26,27,27,28,28,29,29,30,30,31,31,32,32,33,33,34,34,35,35,41,41,42,42,50,50],"right_children":[2,4,6,8,10,12,14,16,18,20,-1,22,24,26,28,30,32,34,-1,36,38,40,-1,42,-1,44,46,48,50,52,54,56,58,60,62,64,-1,-1,-1,-1,-1,66,68,-1,-1,-1,-1,-1,-1,-1,70,-1,-1,-1,-1,-1,-1,-1,-1,-1,-1,-1,-1,-1,-1,-1,-1,-1,-1,-1,-1],"split_conditions":[1.085E2,2.0215E3,2.328416E1,6.5E0,8.9E1,4.063466E1,2.3683723E1,7.85E1,2.3698761E1,6.5E0,8.873306E1,1.96E3,5.5E0,1.11E2,1.125E2,3.65E1,4.061904E1,5.15E1,8.461238E1,2.3351326E1,3.8E1,1.2E2,6.546095E1,1.968E3,4.107607E1,1.5E0,1.9695E3,1.5E0,1.9675E3,1.9615E3,3.801568E1,1.035E2,9.75E1,4.15E1,4.059268E1,4.15E1,1.6476007E1,4.9890292E-1,4.8911686E0,7.0179477E0,6.041382E-1,2E0,3.5E0,1.3797675E1,3.2976747E0,-3.6460238E0,-1.7306932E1,1.1568695E0,-9.478638E-1,2.3873292E-1,1.9755E3,2.2262957E1,6.552134E0,6.41289E0,1.1282404E1,2.0626255E1,-1.9412176E1,1.3772077E1,5.5445576E0,1.2717834E1,-8.193346E0,5.381462E0,3.1119457E1,1.9475618E1,5.102842E1,1.1114631E1,3.3018173E1,1.0259235E1,-2.40647E1,1.4187631E1,3.079903E1],"split_indices":[0,4,2,3,0,1,2,0,2,3,0,4,3,0,0,0,1,0,0,2,0,0,0,4,0,3,4,3,4,4,1,0,0,0,1,0,0,0,0,0,0,3,3,0,0,0,0,0,0,0,4,0,0,0,0,0,0,0,0,0,0,0,0,0,0,0,0,0,0,0,0],"split_type":[0,0,0,0,0,0,0,0,0,0,0,0,0,0,0,0,0,0,0,0,0,0,0,0,0,0,0,0,0,0,0,0,0,0,0,0,0,0,0,0,0,0,0,0,0,0,0,0,0,0,0,0,0,0,0,0,0,0,0,0,0,0,0,0,0,0,0,0,0,0,0],"sum_hessian":[1.26E3,1.2E3,6E1,1.184E3,1.6E1,4E1,2E1,1.136E3,4.8E1,1.5E1,1E0,1.9E1,2.1E1,7E0,1.3E1,8.96E2,2.4E2,4.6E1,2E0,1.2E1,3E0,2E0,1.7E1,1.8E1,3E0,2E0,5E0,2E0,1.1E1,2.08E2,6.88E2,8.9E1,1.51E2,1.5E1,3.1E1,6E0,6E0,1E0,2E0,1E0,1E0,5E0,1.3E1,1E0,1E0,1E0,4E0,1E0,1E0,1E0,1E1,6E0,2.02E2,1.07E2,5.81E2,8.7E1,2E0,1.23E2,2.8E1,8E0,7E0,6E0,2.5E1,3E0,3E0,2E0,3E0,1.1E1,2E0,3E0,7E0],"tree_param":{"num_deleted":"0","num_feature":"5","num_nodes":"71","size_leaf_vector":"0"}},{"base_weights":[2.9918486E1,2.931639E1,2.1179845E2,2.6484123E1,5.4330624E1,2.45972E2,5.4638885E1,2.5495373E1,5.7665085E1,4.887539E1,1.7766333E2,3.2130424E1,2.126388E1,6.1892143E1,1.0489113E1,1.11962776E2,4.1046455E1,2.2529173E2,7.081382E1,1.7997921E1,3.9435234E1,4.7033672E1,2.024002E1,4.5815506E1,1.0238553E2,1.413559E0,1.3043111E1,1.8920034E1,1.6774948E2,3.500108E1,1.41007E2,-8.519807E-1,2.2055353E1,2.2563301E2,3.7284054E1,6.2494865E1,1.260323E1,5.5990257E1,1.9479843E1,-4.65661E0,5.614276E1,1.242514E1,1.1346199E2,3.2171356E1,-5.055074E0,1.9152043E2,6.764221E-1,3.802E1,-3.3585094E1,6.178058E1,2.6856958E2],"categories":[],"categories_nodes":[],"categories_segments":[],"categories_sizes":[],"default_left":[1,1,1,1,1,0,0,1,1,1,1,1,1,1,1,1,1,0,0,1,1,1,1,1,1,0,0,1,1,1,1,0,0,0,0,0,0,0,0,0,0,0,0,0,0,0,0,0,0,0,0],"id":8,"left_children":[1,3,5,7,9,-1,-1,11,13,15,17,19,21,23,25,27,29,-1,-1,31,33,35,37,39,41,-1,-1,43,45,47,49,-1,-1,-1,-1,-1,-1,-1,-1,-1,-1,-1,-1,-1,-1,-1,-1,-1,-1,-1,-1],"loss_changes":[1.3188225E5,8.7686625E4,8.043172E3,3.3429625E4,7.676341E4,0E0,0E0,3.01725E4,6.1309375E3,5.6154844E4,9.491578E3,4.326847E4,1.6831281E4,1.549007E4,7.4278595E1,6.4303312E4,6.214178E4,0E0,0E0,1.1261676E4,1.0374019E5,1.252075E4,1.6574062E4,1.277116E4,6.561758E3,0E0,0E0,2.06884E3,3.1642328E4,2.3224875E4,4.4045586E4,0E0,0E0,0E0,0E0,0E0,0E0,0E0,0E0,0E0,0E0,0E0,0E0,0E0,0E0,0E0,0E0,0E0,0E0,0E0,0E0],"parents":[2147483647,0,0,1,1,2,2,3,3,4,4,7,7,8,8,9,9,10,10,11,11,12,12,13,13,14,14,15,15,16,16,19,19,20,20,21,21,22,22,23,23,24,24,27,27,28,28,29,29,30,30],"right_children":[2,4,6,8,10,-1,-1,12,14,16,18,20,22,24,26,28,30,-1,-1,32,34,36,38,40,42,-1,-1,44,46,48,50,-1,-1,-1,-1,-1,-1,-1,-1,-1,-1,-1,-1,-1,-1,-1,-1,-1,-1,-1,-1],"split_conditions":[1.775E2,9.35E1,2.05E2,2.0195E3,2.0025E3,7.37916E1,1.6391666E1,4.060012E1,6.5E0,1.9655E3,1.075E2,3.7969093E1,2.2901201E1,4.5E0,3.8E1,1.959E3,6.5E0,6.7587524E1,2.1244146E1,1.9695E3,3.797621E1,5.25E1,1.9605E3,2.2939629E1,2.0205E3,4.240677E-1,3.9129333E0,2.5E0,2.3702024E1,1.45E2,4.0619053E1,-2.5559422E-1,6.616606E0,6.76899E1,1.1185217E1,1.874846E1,3.7809694E0,1.6797077E1,5.843953E0,-1.396983E0,1.6842829E1,3.7275422E0,3.4038597E1,9.651407E0,-1.5165223E0,5.745613E1,2.0292665E-1,1.1406E1,-1.0075529E1,1.8534174E1,8.057088E1],"split_indices":[0,0,0,4,4,0,0,1,3,4,0,1,2,3,0,4,3,0,0,4,1,0,4,2,4,0,0,3,2,0,1,0,0,0,0,0,0,0,0,0,0,0,0,0,0,0,0,0,0,0,0],"split_type":[0,0,0,0,0,0,0,0,0,0,0,0,0,0,0,0,0,0,0,0,0,0,0,0,0,0,0,0,0,0,0,0,0,0,0,0,0,0,0,0,0,0,0,0,0,0,0,0,0,0,0],"sum_hessian":[1.26E3,1.257E3,3E0,1.131E3,1.26E2,2E0,1E0,1.098E3,3.3E1,1.22E2,4E0,4.25E2,6.73E2,3E1,3E0,1.2E1,1.1E2,2E0,2E0,1.46E2,2.79E2,2.4E1,6.49E2,2.3E1,7E0,1E0,2E0,5E0,7E0,1.05E2,5E0,2.6E1,1.2E2,2E0,2.77E2,1.6E1,8E0,1.2E1,6.37E2,4E0,1.9E1,1E0,6E0,3E0,2E0,6E0,1E0,1.01E2,4E0,4E0,1E0],"tree_param":{"num_deleted":"0","num_feature":"5","num_nodes":"51","size_leaf_vector":"0"}},{"base_weights":[2.1365774E1,2.0446707E1,1.017679E2,1.5685171E1,2.9500349E1,6.741198E1,1.7080472E2,1.4684789E1,4.5670513E1,2.8316025E1,1.4825577E2,1.2416502E2,-2.5524683E1,1.9677759E2,4.6443054E1,-3.5044407E1,1.5234824E1,2.8610346E1,8.047959E1,2.6370348E1,8.369095E1,1.6870178E1,1.8642757E2,-1.2368787E2,2.993808E1,5.256368E0,-4.7309822E1,1.9034304E1,8.131316E0,6.190364E1,1.8498877E1,1.02088875E2,1.0434489E1,4.8705154E1,2.2510294E1,1.3794281E2,4.8195923E1,-3.3433838E0,4.2146362E1,-2.0069061E1,2.7953613E1,-5.6562813E1,-1.6118235E1,3.436871E1,1.55036745E1,3.726286E1,5.586119E0,3.0465158E1,1.0290097E1,1.21053894E2,3.631897E0,1.02442406E2,4.0837265E1,1.4403021E1,3.2707966E1,5.8286453E1,2.2828412E2,2.2170938E1,1.4121039E2,2.8201294E0,6.0399414E1],"categories":[],"categories_nodes":[],"categories_segments":[],"categories_sizes":[],"default_left":[1,1,1,1,1,1,1,1,1,1,1,0,1,0,0,1,1,1,1,1,1,0,0,0,1,1,1,1,1,0,1,1,0,1,1,1,1,0,1,0,0,0,0,0,0,0,0,0,0,0,0,0,0,0,0,0,0,0,0,0,0],"id":9,"left_children":[1,3,5,7,9,11,13,15,17,19,21,-1,23,-1,-1,25,27,29,31,33,35,-1,-1,-1,37,39,41,43,45,-1,47,49,-1,51,53,55,57,-1,59,-1,-1,-1,-1,-1,-1,-1,-1,-1,-1,-1,-1,-1,-1,-1,-1,-1,-1,-1,-1,-1,-1],"loss_changes":[9.110069E4,5.3337625E4,2.169125E4,2.3926719E4,5.6138625E4,6.1188098E4,3.781164E3,2.2279406E4,1.3137516E4,4.369103E4,1.6915828E4,0E0,3.0924984E4,0E0,0E0,4.6974307E3,2.1086062E4,5.251091E3,1.104375E4,3.4509812E4,2.0311117E4,0E0,0E0,0E0,1.7661497E3,2.285455E3,1.1086143E3,2.718689E4,2.0256008E4,0E0,1.2581675E3,1.0763777E4,0E0,2.1184453E4,2.8795969E4,2.267543E4,2.1076232E4,0E0,1.9831367E3,0E0,0E0,0E0,0E0,0E0,0E0,0E0,0E0,0E0,0E0,0E0,0E0,0E0,0E0,0E0,0E0,0E0,0E0,0E0,0E0,0E0,0E0],"parents":[2147483647,0,0,1,1,2,2,3,3,4,4,5,5,6,6,7,7,8,8,9,9,10,10,12,12,15,15,16,16,17,17,18,18,19,19,20,20,24,24,25,25,26,26,27,27,28,28,30,30,31,31,33,33,34,34,35,35,36,36,38,38],"right_children":[2,4,6,8,10,12,14,16,18,20,22,-1,24,-1,-1,26,28,30,32,34,36,-1,-1,-1,38,40,42,44,46,-1,48,50,-1,52,54,56,58,-1,60,-1,-1,-1,-1,-1,-1,-1,-1,-1,-1,-1,-1,-1,-1,-1,-1,-1,-1,-1,-1,-1,-1],"split_conditions":[1.325E2,6.65E1,1.775E2,2.0205E3,2.0215E3,1.45E2,2.05E2,1.9545E3,5E1,6.5E0,3.9025253E1,3.7249508E1,4.0619053E1,5.903328E1,1.3932917E1,3.85E1,4.0639835E1,1.5E0,6.5E0,1.9685E3,2.2971788E1,5.0610538E0,5.5928272E1,-3.710636E1,1.575E2,3.35E1,1.952E3,2.2947227E1,2.2901201E1,1.8571093E1,2.2959255E1,5.95E1,3.130347E0,3.929328E1,1.9775E3,9.5E1,1.075E2,-1.0030152E0,4.0647324E1,-6.0207186E0,8.386085E0,-1.6968845E1,-4.8354707E0,1.0310614E1,4.6511025E0,1.1178858E1,1.6758358E0,9.139548E0,3.0870292E0,3.631617E1,1.0895691E0,3.0732723E1,1.225118E1,4.3209066E0,9.81239E0,1.7485937E1,6.848524E1,6.651282E0,4.2363117E1,8.460389E-1,1.8119825E1],"split_indices":[0,0,0,4,4,0,0,4,0,3,1,0,1,0,0,0,1,3,3,4,2,0,0,0,0,0,4,2,2,0,2,0,0,1,4,0,0,0,1,0,0,0,0,0,0,0,0,0,0,0,0,0,0,0,0,0,0,0,0,0,0],"split_type":[0,0,0,0,0,0,0,0,0,0,0,0,0,0,0,0,0,0,0,0,0,0,0,0,0,0,0,0,0,0,0,0,0,0,0,0,0,0,0,0,0,0,0,0,0,0,0,0,0,0,0,0,0,0,0,0,0,0,0,0,0],"sum_hessian":[1.26E3,1.247E3,1.3E1,8.19E2,4.28E2,1E1,3E0,7.94E2,2.5E1,4.25E2,3E0,6E0,4E0,2E0,1E0,8E0,7.86E2,1.8E1,7E0,4.12E2,1.3E1,1E0,2E0,1E0,3E0,2E0,6E0,5.11E2,2.75E2,3E0,1.5E1,5E0,2E0,5.9E1,3.53E2,4E0,9E0,1E0,2E0,1E0,1E0,4E0,2E0,9.4E1,4.17E2,2.1E1,2.54E2,5E0,1E1,4E0,1E0,6E0,5.3E1,1.98E2,1.55E2,3E0,1E0,8E0,1E0,1E0,1E0],"tree_param":{"num_deleted":"0","num_feature":"5","num_nodes":"61","size_leaf_vector":"0"}},{"base_weights":[1.5292188E1,1.4088383E1,5.586366E1,1.2912065E1,3.987911E1,4.0647682E1,1.4207317E2,1.2228158E1,6.870517E1,3.1007366E1,1.7740569E2,6.082405E1,-5.6920593E1,1.2529959E1,-3.9315815E1,4.481288E1,1.8965247E2,-5.7931356E0,4.799597E1,1.4304764E2,2.4893414E1,-1.4566345E1,-7.445613E1,1.0256275E1,2.0356077E1,-2.0414313E2,2.217926E1,6.171759E1,2.1506334E1,5.0794006E1,-1.6724356E1,1.226438E2,3.440774E1,1.9484192E1,1.8098808E2,6.552183E1,2.8011081E0,-1.8193878E1,-3.6556396E0,-2.148648E1,-8.495052E1,-1.6848848E1,1.0736349E1,5.930865E0,2.6094103E1,-4.5721924E1,6.756033E1,2.9552536E1,7.845325E1,3.3670425E1,1.3867249E1,8.8148926E1,-1.1957916E1,-4.791579E1,-1.0260342E0,1.7414307E1,1.8699202E2,-1.4290387E1,6.1906235E1,-1.4791412E1,4.40177E1,2.2113843E2,-9.881805E0,1.6628723E0,7.588784E1,-4.999459E1,2.8918848E1],"categories":[],"categories_nodes":[],"categories_segments":[],"categories_sizes":[],"default_left":[1,1,1,1,1,1,0,1,1,1,0,1,1,1,1,1,0,1,1,1,1,1,1,1,1,0,1,1,1,1,1,1,1,1,1,1,1,0,0,0,0,0,0,0,0,0,0,0,0,0,0,0,0,0,0,0,0,0,0,0,0,0,0,0,0,0,0],"id":10,"left_children":[1,3,5,7,9,11,-1,13,15,17,-1,19,21,23,25,27,-1,29,31,33,35,37,39,41,43,-1,45,47,49,51,53,55,57,59,61,63,65,-1,-1,-1,-1,-1,-1,-1,-1,-1,-1,-1,-1,-1,-1,-1,-1,-1,-1,-1,-1,-1,-1,-1,-1,-1,-1,-1,-1,-1,-1],"loss_changes":[6.0800375E4,3.6679562E4,4.144847E4,4.39565E4,5.9164414E4,6.64565E4,0E0,1.855314E4,3.195704E4,3.2162691E4,0E0,7.62064E4,3.3716719E3,2.0343438E4,7.548022E4,3.7945527E3,0E0,1.1365127E4,3.1281719E4,3.3978016E4,1.7767973E4,5.2226624E1,3.9825E2,1.1853086E4,2.1283258E4,0E0,2.1577559E4,1.4496328E3,1.835415E2,8.086356E3,7.295635E3,3.060032E4,4.2397547E4,3.1737861E3,4.8166203E4,4.507551E3,2.0750445E4,0E0,0E0,0E0,0E0,0E0,0E0,0E0,0E0,0E0,0E0,0E0,0E0,0E0,0E0,0E0,0E0,0E0,0E0,0E0,0E0,0E0,0E0,0E0,0E0,0E0,0E0,0E0,0E0,0E0,0E0],"parents":[2147483647,0,0,1,1,2,2,3,3,4,4,5,5,7,7,8,8,9,9,11,11,12,12,13,13,14,14,15,15,17,17,18,18,19,19,20,20,21,21,22,22,23,23,24,24,26,26,27,27,28,28,29,29,30,30,31,31,32,32,33,33,34,34,35,35,36,36],"right_children":[2,4,6,8,10,12,-1,14,16,18,-1,20,22,24,26,28,-1,30,32,34,36,38,40,42,44,-1,46,48,50,52,54,56,58,60,62,64,66,-1,-1,-1,-1,-1,-1,-1,-1,-1,-1,-1,-1,-1,-1,-1,-1,-1,-1,-1,-1,-1,-1,-1,-1,-1,-1,-1,-1,-1,-1],"split_conditions":[1.175E2,6.5E0,5.5E0,2.0215E3,2.3698761E1,4.5E0,4.2621952E1,1.115E2,8.9E1,5.15E1,5.3221706E1,1.9705E3,1.9695E3,7.85E1,1.971E3,2.3351326E1,5.689574E1,1.967E3,5.35E1,1.961E3,1.5E0,1.25E2,3.927254E1,1.9585E3,2.2944397E1,-6.124294E1,1.135E2,4.15E1,1.5E0,3.85E1,1.99E3,3.927254E1,6.05E1,1.25E2,4.063466E1,2.294096E1,2.5E0,-5.4581637E0,-1.096692E0,-6.4459443E0,-2.5485159E1,-5.0546546E0,3.2209048E0,1.7792596E0,7.8282313E0,-1.3716578E1,2.02681E1,8.865761E0,2.3535975E1,1.0101128E1,4.160175E0,2.644468E1,-3.587375E0,-1.4374738E1,-3.0781028E-1,5.2242923E0,5.6097607E1,-4.2871165E0,1.857187E1,-4.4374237E0,1.3205311E1,6.634153E1,-2.9645417E0,4.988617E-1,2.2766354E1,-1.4998378E1,8.675654E0],"split_indices":[0,3,3,4,2,3,0,0,0,0,0,4,4,0,4,2,0,4,0,4,3,0,1,4,2,0,0,0,3,0,4,1,0,0,1,2,3,0,0,0,0,0,0,0,0,0,0,0,0,0,0,0,0,0,0,0,0,0,0,0,0,0,0,0,0,0,0],"split_type":[0,0,0,0,0,0,0,0,0,0,0,0,0,0,0,0,0,0,0,0,0,0,0,0,0,0,0,0,0,0,0,0,0,0,0,0,0,0,0,0,0,0,0,0,0,0,0,0,0,0,0,0,0,0,0,0,0,0,0,0,0,0,0,0,0,0,0],"sum_hessian":[1.26E3,1.225E3,3.5E1,1.173E3,5.2E1,3.1E1,4E0,1.16E3,1.3E1,5E1,2E0,2.6E1,5E0,1.154E3,6E0,1.2E1,1E0,1.6E1,3.4E1,7E0,1.9E1,2E0,3E0,8.96E2,2.58E2,1E0,5E0,6E0,6E0,2E0,1.4E1,4E0,3E1,2E0,5E0,6E0,1.3E1,1E0,1E0,1E0,2E0,1.5E1,8.81E2,7.4E1,1.84E2,2E0,3E0,3E0,3E0,1E0,5E0,1E0,1E0,4E0,1E1,2E0,2E0,1.1E1,1.9E1,1E0,1E0,4E0,1E0,1E0,5E0,4E0,9E0],"tree_param":{"num_deleted":"0","num_feature":"5","num_nodes":"67","size_leaf_vector":"0"}},{"base_weights":[1.0932014E1,1.0594608E1,1.1431354E2,1.007883E1,4.765355E1,3.4895752E1,1.2915422E2,9.165658E0,3.1665531E1,3.0481321E1,1.6120459E2,8.519291E0,3.1628279E1,2.4114643E1,1.4192456E2,5.5602314E1,2.2921015E1,1.891113E0,1.0354725E1,8.7278435E1,1.6029043E1,1.3041159E1,6.488977E1,2.2825623E0,2.8342176E1,4.166004E1,4.2249483E-1,-3.5541737E1,1.0699044E1,1.1976151E2,4.0471597E0,3.4616703E1,-3.2443733E1,5.617942E1,-5.912423E0,1.27333885E2,3.3362007E1,-2.9733684E0,9.025177E0,3.8424316E1,1.7091766E1],"categories":[],"categories_nodes":[],"categories_segments":[],"categories_sizes":[],"default_left":[1,1,1,1,1,0,0,1,1,1,0,1,1,1,0,0,1,1,1,1,1,1,1,1,1,0,0,0,0,0,0,0,0,0,0,0,0,0,0,0,0],"id":11,"left_children":[1,3,5,7,9,-1,-1,11,13,15,-1,17,19,21,-1,-1,23,25,27,29,31,33,35,37,39,-1,-1,-1,-1,-1,-1,-1,-1,-1,-1,-1,-1,-1,-1,-1,-1],"loss_changes":[4.2774656E4,2.3565375E4,2.0751953E2,2.4192523E4,2.8234984E4,0E0,0E0,1.7051828E4,3.820522E4,1.7642969E3,0E0,1.4104664E4,2.7248309E4,2.082685E4,0E0,0E0,1.50169E3,1.4758959E4,1.4745234E4,1.8440566E4,2.5449973E4,3.2219516E4,1.5439121E4,1.6859003E2,5.909707E2,0E0,0E0,0E0,0E0,0E0,0E0,0E0,0E0,0E0,0E0,0E0,0E0,0E0,0E0,0E0,0E0],"parents":[2147483647,0,0,1,1,2,2,3,3,4,4,7,7,8,8,9,9,11,11,12,12,13,13,16,16,17,17,18,18,19,19,20,20,21,21,22,22,23,23,24,24],"right_children":[2,4,6,8,10,-1,-1,12,14,16,-1,18,20,22,-1,-1,24,26,28,30,32,34,36,38,40,-1,-1,-1,-1,-1,-1,-1,-1,-1,-1,-1,-1,-1,-1,-1,-1],"split_conditions":[1.775E2,2.0215E3,1.95E2,6.5E0,8.9E1,1.0468726E1,3.874627E1,1.175E2,2.3698761E1,2.2959255E1,4.8361378E1,3.95E1,2.2945728E1,8.75E1,4.257737E1,1.6680695E1,3.25E1,1.961E3,1.9515E3,1.9825E3,4.5E0,1.9665E3,2.2971788E1,4.062668E1,2.3351326E1,1.24980135E1,1.2674846E-1,-1.0662521E1,3.2097135E0,3.5928455E1,1.2141479E0,1.0385012E1,-9.73312E0,1.6853827E1,-1.773727E0,3.820017E1,1.0008602E1,-8.9201057E-1,2.7075531E0,1.1527295E1,5.12753E0],"split_indices":[0,4,0,3,0,0,0,0,2,2,0,0,2,0,0,0,0,4,4,4,3,4,2,1,2,0,0,0,0,0,0,0,0,0,0,0,0,0,0,0,0],"split_type":[0,0,0,0,0,0,0,0,0,0,0,0,0,0,0,0,0,0,0,0,0,0,0,0,0,0,0,0,0,0,0,0,0,0,0,0,0,0,0,0,0],"sum_hessian":[1.26E3,1.257E3,3E0,1.241E3,1.6E1,1E0,2E0,1.192E3,4.9E1,1.5E1,1E0,1.16E3,3.2E1,4.7E1,2E0,2E0,1.3E1,2.52E2,9.08E2,6E0,2.6E1,3.8E1,9E0,3E0,1E1,8E0,2.44E2,6E0,9.02E2,4E0,2E0,1.9E1,7E0,1.1E1,2.7E1,2E0,7E0,2E0,1E0,4E0,6E0],"tree_param":{"num_deleted":"0","num_feature":"5","num_nodes":"41","size_leaf_vector":"0"}},{"base_weights":[7.875693E0,7.600919E0,9.232323E1,1.2152296E1,4.5019164E0,3.8176006E1,1.2738245E2,4.0903363E0,1.9618546E1,7.8493767E0,-1.203848E-1,7.643091E1,1.337582E0,1.6075533E1,7.01508E1,2.4242663E0,2.207009E1,-1.1972603E1,9.135675E0,3.260158E1,1.2306718E2,-1.2528609E1,6.293448E0,3.278277E1,1.0569061E1,8.7388725E1,-1.02828E2,-3.788955E1,4.5591393E0,-1.0689148E1,3.4104008E1,1.9329273E1,-1.620154E1,-3.4416914E0,1.6578068E1,-1.5558571E1,8.594793E1,1.4173604E2,3.3530304E1,2.7481356E1,-2.248157E1,-1.9382505E1,1.0475062E1,2.1694807E1,7.6250694E1,1.3037725E1,-4.6605583E1,3.4487915E0,9.9133804E1,-4.7495155E1,2.8010483E0,1.9333043E0,2.2149794E1,-1.5179413E1,6.649968E1,4.8047825E1,-1.2671404E1,4.967965E1,-1.3168799E1,-1.3891345E1,-5.893512E1,3.1204016E1,-6.7389903E0,8.998807E0,3.2328762E1],"categories":[],"categories_nodes":[],"categories_segments":[],"categories_sizes":[],"default_left":[1,1,1,1,1,0,0,1,1,1,1,1,1,1,1,1,1,1,1,1,1,1,1,1,1,1,0,1,1,1,1,1,1,1,1,0,0,0,0,0,0,0,0,0,0,0,0,0,0,0,0,0,0,0,0,0,0,0,0,0,0,0,0,0,0],"id":12,"left_children":[1,3,5,7,9,-1,-1,11,13,15,17,19,21,23,25,27,29,31,33,35,37,39,41,43,45,47,-1,49,51,53,55,57,59,61,63,-1,-1,-1,-1,-1,-1,-1,-1,-1,-1,-1,-1,-1,-1,-1,-1,-1,-1,-1,-1,-1,-1,-1,-1,-1,-1,-1,-1,-1,-1],"loss_changes":[2.8558492E4,1.768904E4,2.7304844E3,3.055779E4,1.1605674E4,0E0,0E0,4.8885184E4,4.613789E4,3.350628E4,3.477611E4,1.4384137E4,1.6433967E4,2.2469E4,5.967654E4,2.7369246E4,4.7671168E4,1.8713105E4,1.671887E4,1.6752236E4,1.93375E3,2.570553E4,1.9099615E4,2.774596E4,2.7142885E4,1.5432219E4,0E0,6.3867617E3,1.3860416E4,1.2447172E4,5.80049E4,1.742181E4,1.132423E4,7.8641797E3,1.3079488E4,0E0,0E0,0E0,0E0,0E0,0E0,0E0,0E0,0E0,0E0,0E0,0E0,0E0,0E0,0E0,0E0,0E0,0E0,0E0,0E0,0E0,0E0,0E0,0E0,0E0,0E0,0E0,0E0,0E0,0E0],"parents":[2147483647,0,0,1,1,2,2,3,3,4,4,7,7,8,8,9,9,10,10,11,11,12,12,13,13,14,14,15,15,16,16,17,17,18,18,19,19,20,20,21,21,22,22,23,23,24,24,25,25,27,27,28,28,29,29,30,30,31,31,32,32,33,33,34,34],"right_children":[2,4,6,8,10,-1,-1,12,14,16,18,20,22,24,26,28,30,32,34,36,38,40,42,44,46,48,-1,50,52,54,56,58,60,62,64,-1,-1,-1,-1,-1,-1,-1,-1,-1,-1,-1,-1,-1,-1,-1,-1,-1,-1,-1,-1,-1,-1,-1,-1,-1,-1,-1,-1,-1,-1],"split_conditions":[1.775E2,4.0632774E1,4E0,4.0590927E1,2.2949203E1,1.1452803E1,3.8214737E1,1.9615E3,1.055E2,2.2945927E1,1.9755E3,4.5E0,2.3658031E1,1.5E0,1.5E2,4.06481E1,3.95E1,3.55E1,4.65E1,3.798217E1,3.811782E1,2.250801E1,1.9695E3,7.4E1,9.85E1,1.96E3,-3.0848402E1,2.294199E1,4.5E0,7.5E0,1.9785E3,1.971E3,1.15E2,1.9775E3,1.9875E3,-4.6675715E0,2.578438E1,4.2520813E1,1.0059092E1,8.244407E0,-6.744471E0,-5.8147516E0,3.1425188E0,6.5084424E0,2.287521E1,3.9113178E0,-1.3981675E1,1.0346375E0,2.9740143E1,-1.4248548E1,8.403145E-1,5.7999134E-1,6.6449385E0,-4.553824E0,1.9949905E1,1.4414348E1,-3.8014214E0,1.4903895E1,-3.95064E0,-4.1674037E0,-1.7680536E1,9.361205E0,-2.0216973E0,2.6996422E0,9.698629E0],"split_indices":[0,1,3,1,2,0,0,4,0,2,4,3,2,3,0,1,0,0,0,1,1,2,4,0,0,4,0,2,3,3,4,4,0,4,4,0,0,0,0,0,0,0,0,0,0,0,0,0,0,0,0,0,0,0,0,0,0,0,0,0,0,0,0,0,0],"split_type":[0,0,0,0,0,0,0,0,0,0,0,0,0,0,0,0,0,0,0,0,0,0,0,0,0,0,0,0,0,0,0,0,0,0,0,0,0,0,0,0,0,0,0,0,0,0,0,0,0,0,0,0,0,0,0,0,0,0,0,0,0,0,0,0,0],"sum_hessian":[1.26E3,1.257E3,3E0,5.08E2,7.49E2,2E0,1E0,2.45E2,2.63E2,4.34E2,3.15E2,8E0,2.37E2,2.47E2,1.6E1,3.15E2,1.19E2,1.38E2,1.77E2,5E0,3E0,6.2E1,1.75E2,6E1,1.87E2,1.5E1,1E0,1.5E1,3E2,3.2E1,8.7E1,1.6E1,1.22E2,6.6E1,1.11E2,3E0,2E0,2E0,1E0,1.2E1,5E1,2.4E1,1.51E2,4.9E1,1.1E1,1.8E2,7E0,2E0,1.3E1,1.2E1,3E0,2.62E2,3.8E1,3.1E1,1E0,6.7E1,2E1,8E0,8E0,1.17E2,5E0,5E0,6.1E1,7.6E1,3.5E1],"tree_param":{"num_deleted":"0","num_feature":"5","num_nodes":"65","size_leaf_vector":"0"}},{"base_weights":[5.6478786E0,5.416377E0,7.704315E1,4.8306217E0,2.5165325E1,3.0540812E1,1.08275085E2,4.1642637E0,2.0380093E1,1.810773E1,9.676296E1,9.13827E0,2.499653E0,1.4263975E1,1.1144462E2,2.437942E1,6.177338E-1,1.255863E2,1.9558136E1,1.1968503E1,-1.2147412E1,-9.445709E-1,6.18056E0,6.9172525E0,6.4538155E1,1.4226464E1,4.845467E1,-2.2230003E1,1.3585336E1,5.440668E0,6.586197E1,-3.589798E1,2.6042582E1,7.8464446E0,-5.6319094E0,-4.0808377E0,8.941295E0,3.625923E1,-4.3021536E0,1.4066467E1,1.584483E2,4.401059E1,5.891279E0,6.96035E1,-2.9449463E0,-6.406067E0,-2.5369293E1,1.9106415E1,-9.770569E0],"categories":[],"categories_nodes":[],"categories_segments":[],"categories_sizes":[],"default_left":[1,1,1,1,1,0,0,1,1,1,1,1,1,1,0,1,1,0,0,1,1,1,1,1,1,1,1,1,1,0,0,0,0,0,0,0,0,0,0,0,0,0,0,0,0,0,0,0,0],"id":13,"left_children":[1,3,5,7,9,-1,-1,11,13,15,17,19,21,23,-1,25,27,-1,-1,29,31,33,35,37,39,41,43,45,47,-1,-1,-1,-1,-1,-1,-1,-1,-1,-1,-1,-1,-1,-1,-1,-1,-1,-1,-1,-1],"loss_changes":[2.0424664E4,1.4431039E4,2.502621E3,1.2587262E4,1.6438898E4,0E0,0E0,9.697623E3,2.625843E4,3.714462E3,4.21967E3,1.7856959E4,1.117504E4,1.7282395E4,0E0,5.421534E3,3.2648057E3,0E0,0E0,9.111165E4,3.2681066E4,1.883434E4,1.2104641E4,1.4311574E4,2.6210018E4,4.4575894E3,7.8142715E3,3.61864E1,1.0893291E3,0E0,0E0,0E0,0E0,0E0,0E0,0E0,0E0,0E0,0E0,0E0,0E0,0E0,0E0,0E0,0E0,0E0,0E0,0E0,0E0],"parents":[2147483647,0,0,1,1,2,2,3,3,4,4,7,7,8,8,9,9,10,10,11,11,12,12,13,13,15,15,16,16,19,19,20,20,21,21,22,22,23,23,24,24,25,25,26,26,27,27,28,28],"right_children":[2,4,6,8,10,-1,-1,12,14,16,18,20,22,24,-1,26,28,-1,-1,30,32,34,36,38,40,42,44,46,48,-1,-1,-1,-1,-1,-1,-1,-1,-1,-1,-1,-1,-1,-1,-1,-1,-1,-1,-1,-1],"split_conditions":[1.775E2,2.0195E3,4E0,6.5E0,8.95E1,9.162244E0,3.248253E1,1.5E0,2.3698761E1,5.95E1,1.075E2,8.25E1,2.5E0,9.5E1,3.3433388E1,5E1,3E0,3.767589E1,5.867441E0,7.85E1,1.055E2,2.2947292E1,4.4E1,1.9665E3,4.0619053E1,1.5E0,6.5E0,6.55E1,7.85E1,1.6322005E0,1.975859E1,-1.0769394E1,7.8127747E0,2.3539336E0,-1.6895729E0,-1.2242514E0,2.6823885E0,1.0877769E1,-1.2906461E0,4.21994E0,4.7534492E1,1.3203177E1,1.7673838E0,2.088105E1,-8.8348395E-1,-1.9218202E0,-7.6107883E0,5.7319245E0,-2.9311707E0],"split_indices":[0,4,3,3,0,0,0,3,2,0,0,0,3,0,0,0,3,0,0,0,0,2,0,4,1,3,3,0,0,0,0,0,0,0,0,0,0,0,0,0,0,0,0,0,0,0,0,0,0],"split_type":[0,0,0,0,0,0,0,0,0,0,0,0,0,0,0,0,0,0,0,0,0,0,0,0,0,0,0,0,0,0,0,0,0,0,0,0,0,0,0,0,0,0,0,0,0,0,0,0,0],"sum_hessian":[1.26E3,1.257E3,3E0,1.222E3,3.5E1,2E0,1E0,1.173E3,4.9E1,3.3E1,2E0,2.93E2,8.8E2,4.7E1,2E0,2.4E1,9E0,1E0,1E0,2.59E2,3.4E1,4.55E2,4.25E2,4.2E1,5E0,1.8E1,6E0,3E0,6E0,2.32E2,2.7E1,2.1E1,1.3E1,1.58E2,2.97E2,9E1,3.35E2,1.1E1,3.1E1,4E0,1E0,3E0,1.5E1,4E0,2E0,1E0,2E0,5E0,1E0],"tree_param":{"num_deleted":"0","num_feature":"5","num_nodes":"49","size_leaf_vector":"0"}},{"base_weights":[4.1349216E0,3.9401991E0,6.43414E1,7.3970895E0,1.5888693E0,2.4432657E1,9.203381E1,7.7524343E0,-8.655902E1,-3.2413418E1,1.952839E0,-2.3367676E1,8.877504E0,2.2216629E1,-4.3391514E1,-1.5725508E-2,7.6022906E0,-3.7582214E1,-9.0172577E-1,1.4275252E0,1.5545333E1,2.4476297E0,-8.030983E0,2.234999E1,3.196243E0,1.2026103E1,-4.994252E1,-3.9181305E1,1.0164115E1,6.457425E1,-8.140734E-1,1.5038274E2,1.3910868E1,7.532448E0,-4.8722105E0,1.9142254E1,-1.1741773E1,6.997464E0,5.8421597E1,-5.224734E0,1.0928475E1],"categories":[],"categories_nodes":[],"categories_segments":[],"categories_sizes":[],"default_left":[1,1,1,1,1,0,0,1,0,1,1,1,1,0,0,1,1,1,1,1,1,1,1,1,1,0,0,0,0,0,0,0,0,0,0,0,0,0,0,0,0],"id":14,"left_children":[1,3,5,7,9,-1,-1,11,-1,13,15,17,19,-1,-1,21,23,25,27,29,31,33,35,37,39,-1,-1,-1,-1,-1,-1,-1,-1,-1,-1,-1,-1,-1,-1,-1,-1],"loss_changes":[1.4529881E4,1.0213635E4,2.172045E3,1.766493E4,9.345148E3,0E0,0E0,1.7993697E4,0E0,5.761885E3,8.263253E3,5.714286E3,2.4368324E4,0E0,0E0,1.091858E4,1.2404546E4,7.3455273E3,3.787009E3,3.3033625E4,5.4988293E4,1.5780783E4,1.3333205E4,2.3957973E4,9.758928E3,0E0,0E0,0E0,0E0,0E0,0E0,0E0,0E0,0E0,0E0,0E0,0E0,0E0,0E0,0E0,0E0],"parents":[2147483647,0,0,1,1,2,2,3,3,4,4,7,7,9,9,10,10,11,11,12,12,15,15,16,16,17,17,18,18,19,19,20,20,21,21,22,22,23,23,24,24],"right_children":[2,4,6,8,10,-1,-1,12,-1,14,16,18,20,-1,-1,22,24,26,28,30,32,34,36,38,40,-1,-1,-1,-1,-1,-1,-1,-1,-1,-1,-1,-1,-1,-1,-1,-1],"split_conditions":[1.775E2,4.0632774E1,4E0,1.5E2,4.0637726E1,7.3297973E0,2.7610146E1,1.959E3,-2.5967707E1,1.968E3,1.9875E3,7.4E1,4.0582275E1,6.664989E0,-1.3017455E1,1.9785E3,1.9985E3,1.9285E3,1.927E3,1.9615E3,4.0584663E1,2.2949203E1,3.15E1,1.9965E3,2.293762E1,3.607831E0,-1.4982757E1,-1.1754392E1,3.0492346E0,1.9372276E1,-2.4422203E-1,4.5114822E1,4.1732607E0,2.2597344E0,-1.4616632E0,5.7426763E0,-3.522532E0,2.0992393E0,1.752648E1,-1.5674202E0,3.2785428E0],"split_indices":[0,1,3,0,1,0,0,4,0,4,4,0,1,0,0,4,4,4,4,4,1,2,0,4,2,0,0,0,0,0,0,0,0,0,0,0,0,0,0,0,0],"split_type":[0,0,0,0,0,0,0,0,0,0,0,0,0,0,0,0,0,0,0,0,0,0,0,0,0,0,0,0,0,0,0,0,0,0,0,0,0,0,0,0,0],"sum_hessian":[1.26E3,1.257E3,3E0,5.08E2,7.49E2,2E0,1E0,5.07E2,1E0,7E0,7.42E2,1.7E1,4.9E2,1E0,6E0,5.51E2,1.91E2,1E1,7E0,2.32E2,2.58E2,4.22E2,1.29E2,4.3E1,1.48E2,2E0,8E0,1E0,6E0,7E0,2.25E2,2E0,2.56E2,2.49E2,1.73E2,1.5E1,1.14E2,3.1E1,1.2E1,7.1E1,7.7E1],"tree_param":{"num_deleted":"0","num_feature":"5","num_nodes":"41","size_leaf_vector":"0"}},{"base_weights":[2.9541705E0,2.7510884E0,4.4973675E1,2.8705318E0,-7.3575195E1,2.2676905E1,7.822876E1,-2.5700203E1,3.1206584E0,-3.6473213E1,2.2708664E0,2.819415E0,2.6083702E1,-4.6680756E0,6.139872E0,2.4098206E0,1.9122866E1,1.3867717E1,1.0466174E2,-1.8585436E0,3.975545E0,3.8299667E1,-8.900616E0,3.3953686E1,8.165746E0],"categories":[],"categories_nodes":[],"categories_segments":[],"categories_sizes":[],"default_left":[1,1,1,1,0,0,0,1,1,0,1,1,1,0,0,1,1,1,0,0,0,0,0,0,0],"id":15,"left_children":[1,3,5,7,-1,-1,-1,9,11,-1,13,15,17,-1,-1,19,21,23,-1,-1,-1,-1,-1,-1,-1],"loss_changes":[1.0636905E4,1.166174E4,2.6748994E3,9.048809E3,0E0,0E0,0E0,3.3974844E3,8.538703E3,0E0,1.3604861E2,8.1676133E3,1.3907111E4,0E0,0E0,8.0337705E3,1.6462912E4,1.4406868E3,0E0,0E0,0E0,0E0,0E0,0E0,0E0],"parents":[2147483647,0,0,1,1,2,2,3,3,7,7,8,8,10,10,11,11,12,12,15,15,16,16,17,17],"right_children":[2,4,6,8,-1,-1,-1,10,12,-1,14,16,18,-1,-1,20,22,24,-1,-1,-1,-1,-1,-1,-1],"split_conditions":[1.625E2,1.55E2,4.5E0,2.05E1,-2.207256E1,6.8030715E0,2.3468628E1,1.9935E3,2.0215E3,-1.0941964E1,1.9E1,1.175E2,8.9E1,-1.4004227E0,1.8419617E0,2.2942041E1,2.328416E1,2.2959255E1,3.1398523E1,-5.575631E-1,1.1926636E0,1.1489901E1,-2.6701849E0,1.0186106E1,2.4497237E0],"split_indices":[0,0,3,0,0,0,0,4,4,0,0,0,0,0,0,2,2,2,0,0,0,0,0,0,0],"split_type":[0,0,0,0,0,0,0,0,0,0,0,0,0,0,0,0,0,0,0,0,0,0,0,0,0],"sum_hessian":[1.26E3,1.255E3,5E0,1.254E3,1E0,4E0,1E0,1E1,1.244E3,7E0,3E0,1.229E3,1.5E1,1E0,2E0,1.2E3,2.9E1,1.4E1,1E0,3.22E2,8.78E2,1.7E1,1.2E1,2E0,1.2E1],"tree_param":{"num_deleted":"0","num_feature":"5","num_nodes":"25","size_leaf_vector":"0"}},{"base_weights":[2.108509E0,1.9899791E0,5.1148743E1,1.4174774E0,1.1694082E1,6.6494446E1,1.0228668E1,1.0116966E0,1.7073944E1,7.898441E1,-3.589856E0,1.2835317E0,-2.5123476E1,1.0911279E1,6.890084E1,9.799643E1,-1.7054443E1,2.363648E1,-1.643262E1,-9.615288E0,1.9880959E0,1.9013742E1,-3.5852295E1,1.5082458E1,-1.1292633E1,8.896246E1,1.4388794E1,4.09374E1,1.2475339E2,-4.702194E0,-2.087947E1,2.1654115E0,8.332239E1,2.6059977E1,-2.4697783E1,5.7161484E1,-1.1411494E1,1.462885E1,1.3479917E0,-4.014304E1,1.3822021E0,7.5940943E0,3.2183613E1,-1.8313744E1,8.395905E0,5.447326E1,-6.603012E0,4.6642498E1,-1.8248302E1,2.941953E1,2.9513245E0,-1.6481295E1,-6.029451E1],"categories":[],"categories_nodes":[],"categories_segments":[],"categories_sizes":[],"default_left":[1,1,1,1,1,0,0,1,1,1,1,1,1,1,1,1,1,1,1,1,1,0,1,1,1,0,0,1,0,0,0,1,0,1,1,0,0,0,0,0,0,0,0,0,0,0,0,0,0,0,0,0,0],"id":16,"left_children":[1,3,5,7,9,-1,-1,11,13,15,17,19,21,23,25,27,29,31,33,35,37,-1,39,41,43,-1,-1,45,-1,-1,-1,47,-1,49,51,-1,-1,-1,-1,-1,-1,-1,-1,-1,-1,-1,-1,-1,-1,-1,-1,-1,-1],"loss_changes":[7.2280757E3,6.977946E3,1.2036919E3,7.542908E3,7.2275836E4,0E0,0E0,8.280522E3,8.829957E3,2.5407875E4,2.066877E4,8.849871E3,6.3641685E3,2.7635818E3,2.0007383E3,1.1686906E4,4.356378E1,2.4168457E4,1.4691953E4,9.048439E3,8.727084E3,0E0,1.653124E3,2.8290264E3,8.449375E2,0E0,0E0,3.5771885E3,0E0,0E0,0E0,1.4470284E4,0E0,4.566162E2,8.950592E3,0E0,0E0,0E0,0E0,0E0,0E0,0E0,0E0,0E0,0E0,0E0,0E0,0E0,0E0,0E0,0E0,0E0,0E0],"parents":[2147483647,0,0,1,1,2,2,3,3,4,4,7,7,8,8,9,9,10,10,11,11,12,12,13,13,14,14,15,15,16,16,17,17,18,18,19,19,20,20,22,22,23,23,24,24,27,27,31,31,33,33,34,34],"right_children":[2,4,6,8,10,-1,-1,12,14,16,18,20,22,24,26,28,30,32,34,36,38,-1,40,42,44,-1,-1,46,-1,-1,-1,48,-1,50,52,-1,-1,-1,-1,-1,-1,-1,-1,-1,-1,-1,-1,-1,-1,-1,-1,-1,-1],"split_conditions":[1.95E2,2.3729038E1,2.05E2,2.0205E3,2.3738575E1,1.9948334E1,3.0686007E0,2.0155E3,8.7E1,2.0125E3,1.9745E3,2.9E1,3.75E1,5.95E1,1.075E2,3.85E1,4E1,1.973E3,3.5909668E1,1.962E3,3.15E1,5.704123E0,6.55E1,5E1,7.2E1,2.668874E1,4.3166385E0,2.3737047E1,3.7426018E1,-1.4106584E0,-6.2638416E0,1.963E3,2.4996717E1,1.27065506E2,3.7995766E1,1.7148445E1,-3.4234483E0,4.388655E0,4.0439752E-1,-1.20429125E1,4.1466066E-1,2.2782283E0,9.655085E0,-5.4941235E0,2.5187714E0,1.6341978E1,-1.9809037E0,1.399275E1,-5.474491E0,8.82586E0,8.853974E-1,-4.9443884E0,-1.8088354E1],"split_indices":[0,2,0,4,2,0,0,4,0,4,4,0,0,0,0,0,0,4,1,4,0,0,0,0,0,0,0,2,0,0,0,4,0,2,1,0,0,0,0,0,0,0,0,0,0,0,0,0,0,0,0,0,0],"split_type":[0,0,0,0,0,0,0,0,0,0,0,0,0,0,0,0,0,0,0,0,0,0,0,0,0,0,0,0,0,0,0,0,0,0,0,0,0,0,0,0,0,0,0,0,0,0,0,0,0,0,0,0,0],"sum_hessian":[1.26E3,1.258E3,2E0,1.189E3,6.9E1,1E0,1E0,1.16E3,2.9E1,1.2E1,5.7E1,1.149E3,1.1E1,2.7E1,2E0,1E1,2E0,1.8E1,3.9E1,6.9E1,1.08E3,2E0,9E0,2.3E1,4E0,1E0,1E0,4E0,6E0,1E0,1E0,1.4E1,4E0,6E0,3.3E1,1E0,6.8E1,5.1E1,1.029E3,8E0,1E0,1.7E1,6E0,3E0,1E0,3E0,1E0,4E0,1E1,5E0,1E0,2.8E1,5E0],"tree_param":{"num_deleted":"0","num_feature":"5","num_nodes":"53","size_leaf_vector":"0"}},{"base_weights":[1.5868862E0,1.4380037E0,3.2488464E1,1.5391355E0,-6.274115E1,1.6378052E1,5.6520264E1,7.077008E-2,4.2972097E0,6.3854165E0,2.0911337E1,3.3124254E0,-4.1011395E0,2.7251604E0,2.2230541E1,-2.50708E0,1.2085205E1,1.0538673E1,-4.412511E0,-1.0396102E1,1.4280938E1,4.619901E0,-1.407048E1,-2.805809E1,3.5804775E1,-7.829717E0,2.036179E1,-7.223515E0,7.940495E0,-2.6590218E1,-2.858624E0,1.1530484E1,5.9832733E1,1.5512259E1,1.5737175E0,-1.8446526E1,4.750828E1,-4.346536E1,1.2109141E1,-2.2064108E1,4.1104847E1],"categories":[],"categories_nodes":[],"categories_segments":[],"categories_sizes":[],"default_left":[1,1,1,1,0,1,0,1,1,1,0,1,1,1,1,0,0,1,1,1,1,1,1,1,1,0,0,0,0,0,0,0,0,0,0,0,0,0,0,0,0],"id":17,"left_children":[1,3,5,7,-1,9,-1,11,13,15,-1,17,19,21,23,-1,-1,25,27,29,31,33,35,37,39,-1,-1,-1,-1,-1,-1,-1,-1,-1,-1,-1,-1,-1,-1,-1,-1],"loss_changes":[5.7547676E3,8.248695E3,1.3972812E3,5.0822715E3,0E0,9.296973E1,0E0,1.1103177E4,1.2231166E4,1.8235461E2,0E0,2.5836408E4,4.1689965E4,1.2858004E4,2.4896648E4,0E0,0E0,4.328335E4,7.8356123E3,3.2636814E4,1.0836605E4,1.1986793E4,1.1924694E4,5.477265E3,9.494797E3,0E0,0E0,0E0,0E0,0E0,0E0,0E0,0E0,0E0,0E0,0E0,0E0,0E0,0E0,0E0,0E0],"parents":[2147483647,0,0,1,1,2,2,3,3,5,5,7,7,8,8,9,9,11,11,12,12,13,13,14,14,17,17,18,18,19,19,20,20,21,21,22,22,23,23,24,24],"right_children":[2,4,6,8,-1,10,-1,12,14,16,-1,18,20,22,24,-1,-1,26,28,30,32,34,36,38,40,-1,-1,-1,-1,-1,-1,-1,-1,-1,-1,-1,-1,-1,-1,-1,-1],"split_conditions":[1.625E2,1.55E2,4.5E0,6.65E1,-1.8822346E1,4.0647324E1,1.695608E1,4.55E1,1.9955E3,1.775E2,6.2734013E0,1.9775E3,1.981E3,4.065909E1,7.2E1,-7.521241E-1,3.6255617E0,1.9695E3,2.0105E3,5.05E1,2.3719296E1,1.5E0,3.5E0,2.3321648E1,2.288736E1,-2.3489153E0,6.108537E0,-2.1670547E0,2.3821485E0,-7.9770656E0,-8.575872E-1,3.4591453E0,1.7949821E1,4.653678E0,4.7211525E-1,-5.533958E0,1.4252485E1,-1.3039608E1,3.6327426E0,-6.6192327E0,1.2331454E1],"split_indices":[0,0,3,0,0,1,0,0,4,0,0,4,4,1,0,0,0,4,4,0,2,3,3,2,2,0,0,0,0,0,0,0,0,0,0,0,0,0,0,0,0],"split_type":[0,0,0,0,0,0,0,0,0,0,0,0,0,0,0,0,0,0,0,0,0,0,0,0,0,0,0,0,0,0,0,0,0,0,0,0,0,0,0,0,0],"sum_hessian":[1.26E3,1.255E3,5E0,1.254E3,1E0,4E0,1E0,8.19E2,4.35E2,2E0,2E0,4.61E2,3.58E2,4.01E2,3.4E1,1E0,1E0,2.38E2,2.23E2,2.67E2,9.1E1,3.61E2,4E1,7E0,2.7E1,8.3E1,1.55E2,1.82E2,4.1E1,8.4E1,1.83E2,8.7E1,4E0,7.8E1,2.83E2,3.8E1,2E0,5E0,2E0,2E0,2.5E1],"tree_param":{"num_deleted":"0","num_feature":"5","num_nodes":"41","size_leaf_vector":"0"}},{"base_weights":[1.1377631E0,7.1235156E-1,1.0820497E1,1.0990491E1,3.4215108E-1,7.006865E0,7.204539E1,1.0763624E0,5.299099E1,1.1000199E0,-1.3429338E1,-1.236977E0,4.0930317E1,1.213061E1,-2.1121832E1,-4.506665E0,2.3550498E0,-2.2610548E1,3.5655884E1,2.2963167E1,-1.0564873E1,5.6965456E0,6.3470074E1,-2.2634678E1,1.8174923E1,1.793052E1,-3.613156E1,-2.606488E1,1.3977778E-1,1.1749115E2,1.9703559E0,-3.0023186E1,1.1524854E1,1.1139526E2,1.4863146E1,4.8476498E1,-4.0182617E1,-3.5015553E1,9.039261E0,-3.5697983E1,8.563733E1,2.315747E1,1.3251654E2,2.392807E0,-3.1774775E1,-4.9781914E0,3.0107065E1,2.5881144E1,-2.960678E0,-9.326538E0,-4.2457775E1,-3.349547E1,4.1753685E1,-2.5743175E0,1.8268517E1,8.838175E0,-1.9866608E-1,-4.7514925E0,-3.7537292E1,-1.28186035E1,2.9890259E1,-2.4867199E1,5.162086E1,5.1822357E0,6.9259926E1,-8.218283E1,1.211731E0,-5.498075E1,7.6816815E-1,3.8572334E1,-1.8444431E1,3.591194E1,-1.3930206E1],"categories":[],"categories_nodes":[],"categories_segments":[],"categories_sizes":[],"default_left":[1,1,1,1,1,1,0,1,0,1,1,1,1,1,1,1,1,1,1,1,1,1,1,1,1,1,1,1,1,0,1,1,1,0,1,1,1,1,1,0,0,1,0,0,0,0,0,0,0,0,0,0,0,0,0,0,0,0,0,0,0,0,0,0,0,0,0,0,0,0,0,0,0],"id":18,"left_children":[1,3,5,7,9,11,-1,13,-1,15,17,19,21,23,25,27,29,31,33,35,37,39,41,43,45,47,49,51,53,-1,55,57,59,-1,61,63,65,67,69,-1,-1,71,-1,-1,-1,-1,-1,-1,-1,-1,-1,-1,-1,-1,-1,-1,-1,-1,-1,-1,-1,-1,-1,-1,-1,-1,-1,-1,-1,-1,-1,-1,-1],"loss_changes":[5.186536E3,4.596451E3,1.1870113E4,1.7431691E4,1.2205169E4,1.431327E4,0E0,8.844673E3,0E0,7.807119E3,2.8296559E4,9.723532E3,7.580047E3,5.4545566E3,7.68184E3,2.0337955E4,3.9897203E4,1.350375E4,1.4092607E4,2.1280623E4,1.5175882E4,1.9602633E4,1.3631908E4,9.9104565E2,5.9514697E3,7.4101807E2,1.1301855E3,1.9540104E4,8.313153E3,0E0,1.3468146E4,7.98709E3,4.853926E3,0E0,1.4427237E4,7.7393066E3,7.0538696E3,1.004424E4,1.5321646E4,0E0,0E0,2.8654292E3,0E0,0E0,0E0,0E0,0E0,0E0,0E0,0E0,0E0,0E0,0E0,0E0,0E0,0E0,0E0,0E0,0E0,0E0,0E0,0E0,0E0,0E0,0E0,0E0,0E0,0E0,0E0,0E0,0E0,0E0,0E0],"parents":[2147483647,0,0,1,1,2,2,3,3,4,4,5,5,7,7,9,9,10,10,11,11,12,12,13,13,14,14,15,15,16,16,17,17,18,18,19,19,20,20,21,21,22,22,23,23,24,24,25,25,26,26,27,27,28,28,30,30,31,31,32,32,34,34,35,35,36,36,37,37,38,38,41,41],"right_children":[2,4,6,8,10,12,-1,14,-1,16,18,20,22,24,26,28,30,32,34,36,38,40,42,44,46,48,50,52,54,-1,56,58,60,-1,62,64,66,68,70,-1,-1,72,-1,-1,-1,-1,-1,-1,-1,-1,-1,-1,-1,-1,-1,-1,-1,-1,-1,-1,-1,-1,-1,-1,-1,-1,-1,-1,-1,-1,-1,-1,-1],"split_conditions":[6.5E0,2.2894638E1,2.3698761E1,4.5E0,5.5E0,8.75E1,2.1613617E1,2.5E0,1.5897298E1,4.0582275E1,1.01E2,1.9665E3,4.0619053E1,3.5E1,4.0266823E1,2.3658031E1,4.0585037E1,1.983E3,1.025E2,6E1,1.991E3,1.075E2,9.5E1,1.9795E3,4.026955E1,7.75E1,5.4E1,2.5E0,2.0055E3,3.5247345E1,4.060012E1,2.2948708E1,5.15E1,3.341858E1,1.15E2,1.964E3,6.75E1,5.9E1,2.0105E3,-1.0709395E1,2.56912E1,4.0647324E1,3.9754963E1,7.178421E-1,-9.532433E0,-1.4934574E0,9.03212E0,7.7643433E0,-8.8820344E-1,-2.7979615E0,-1.2737333E1,-1.0048641E1,1.2526106E1,-7.722953E-1,5.480555E0,2.6514525E0,-5.9599828E-2,-1.4254478E0,-1.12611885E1,-3.8455813E0,8.967078E0,-7.46016E0,1.54862585E1,1.5546708E0,2.0777979E1,-2.465485E1,3.635193E-1,-1.6494226E1,2.3045045E-1,1.1571701E1,-5.5333295E0,1.0773582E1,-4.179062E0],"split_indices":[3,2,2,3,3,0,0,3,0,1,0,4,1,0,1,2,1,4,0,0,4,0,0,4,1,0,0,3,4,0,1,2,0,0,0,4,0,0,4,0,0,1,0,0,0,0,0,0,0,0,0,0,0,0,0,0,0,0,0,0,0,0,0,0,0,0,0,0,0,0,0,0,0],"split_type":[0,0,0,0,0,0,0,0,0,0,0,0,0,0,0,0,0,0,0,0,0,0,0,0,0,0,0,0,0,0,0,0,0,0,0,0,0,0,0,0,0,0,0,0,0,0,0,0,0,0,0,0,0,0,0,0,0,0,0,0,0,0,0,0,0,0,0,0,0,0,0,0,0],"sum_hessian":[1.26E3,1.208E3,5.2E1,4.1E1,1.167E3,5E1,2E0,3.4E1,7E0,1.107E3,6E1,4.1E1,9E0,2.3E1,1.1E1,2.02E2,9.05E2,5.1E1,9E0,1.1E1,3E1,4E0,5E0,3E0,2E1,3E0,8E0,3.5E1,1.67E2,2E0,9.03E2,4.2E1,9E0,1E0,8E0,8E0,3E0,1.3E1,1.7E1,3E0,1E0,4E0,1E0,1E0,2E0,7E0,1.3E1,2E0,1E0,2E0,6E0,3.2E1,3E0,1.46E2,2.1E1,2.16E2,6.87E2,1E1,3.2E1,4E0,5E0,4E0,4E0,3E0,5E0,1E0,2E0,8E0,5E0,8E0,9E0,3E0,1E0],"tree_param":{"num_deleted":"0","num_feature":"5","num_nodes":"73","size_leaf_vector":"0"}},{"base_weights":[9.1984844E-1,-1.6226973E1,1.1253676E0,6.4910126E-1,-2.0500084E1,4.087544E0,-3.0428672E-1,-7.333486E0,1.2298431E1,-2.889996E1,-7.283549E0,1.3926556E0,1.6783249E1,-3.5451527E0,1.5147626E0,-6.950073E-1,-1.0305222E1,-3.543541E0,-4.7031387E1,3.6052125E0,-3.0863678E1,8.77777E0,-2.192169E0,6.423737E1,7.012703E0,9.099379E0,-9.275704E0,-4.5172873E0,6.073051E0,-1.7341797E1,6.836477E0,-1.9468384E0,7.955526E0,3.3583614E1,-3.2460725E0,-1.5204544E1,3.3517916E0,-1.9659424E1,8.298267E1,3.2728104E1,-2.2863884E0,-1.8032351E-1,2.9211412E1,-1.1304981E1,5.0898415E1,3.1713872E0,-8.713596E0,-4.2363024E0,1.3526363E1,1.6174316E1,-5.9196014E0,-2.776703E0,-1.4355469E-1,-5.093747E1,4.281091E1,-1.5255391E1,1.5276418E1,-2.156043E1,2.3815638E1,9.95084E0,-9.786171E0,-5.3423615E1,2.3934479E1,1.3104012E2,2.910436E1,1.989144E1,1.1263904E2,-1.7358234E1,1.576516E1,8.513263E0,-2.7879858E1,8.495381E0,9.606474E1,-5.357846E1,-9.745492E0,7.070639E1,1.8365837E1,2.4170645E1,6.0919106E-1,-1.13845415E1,7.4653335E0,-2.3392788E1,1.998484E0,-1.1505521E1,2.1284353E1],"categories":[],"categories_nodes":[],"categories_segments":[],"categories_sizes":[],"default_left":[1,1,1,1,1,1,1,1,0,1,1,1,1,1,1,0,0,1,0,1,0,1,1,1,1,1,1,1,1,0,1,1,0,1,1,1,1,1,1,1,1,1,1,1,1,1,1,1,1,0,0,0,0,0,0,0,0,0,0,0,0,0,0,0,0,0,0,0,0,0,0,0,0,0,0,0,0,0,0,0,0,0,0,0,0],"id":19,"left_children":[1,3,5,7,9,11,13,15,-1,17,19,21,23,25,27,-1,-1,29,-1,31,-1,33,35,37,39,41,43,45,47,-1,49,51,-1,53,55,57,59,61,63,65,67,69,71,73,75,77,79,81,83,-1,-1,-1,-1,-1,-1,-1,-1,-1,-1,-1,-1,-1,-1,-1,-1,-1,-1,-1,-1,-1,-1,-1,-1,-1,-1,-1,-1,-1,-1,-1,-1,-1,-1,-1,-1],"loss_changes":[4.4620273E3,1.0950071E3,5.28215E3,4.6215756E2,1.1217124E3,1.3867311E4,4.9692085E3,5.202121E1,0E0,3.0515786E3,1.6518204E3,8.914619E3,3.246886E4,2.2039826E4,1.4875178E4,0E0,0E0,6.914613E2,0E0,1.3625394E2,0E0,3.291778E4,1.6426764E4,2.0503434E4,1.4422621E4,1.7735467E4,2.6096383E4,7.5451597E3,2.372366E4,0E0,4.530882E2,4.0908337E0,0E0,3.0257113E4,1.6916234E4,1.7378008E4,1.3969068E4,5.694405E3,2.2078703E4,1.4172084E4,1.2516812E4,1.6130695E4,4.073196E4,1.2860633E4,3.21225E3,4.4510254E3,6.6101562E3,1.557351E4,3.500617E4,0E0,0E0,0E0,0E0,0E0,0E0,0E0,0E0,0E0,0E0,0E0,0E0,0E0,0E0,0E0,0E0,0E0,0E0,0E0,0E0,0E0,0E0,0E0,0E0,0E0,0E0,0E0,0E0,0E0,0E0,0E0,0E0,0E0,0E0,0E0,0E0],"parents":[2147483647,0,0,1,1,2,2,3,3,4,4,5,5,6,6,7,7,9,9,10,10,11,11,12,12,13,13,14,14,17,17,19,19,21,21,22,22,23,23,24,24,25,25,26,26,27,27,28,28,30,30,31,31,33,33,34,34,35,35,36,36,37,37,38,38,39,39,40,40,41,41,42,42,43,43,44,44,45,45,46,46,47,47,48,48],"right_children":[2,4,6,8,10,12,14,16,-1,18,20,22,24,26,28,-1,-1,30,-1,32,-1,34,36,38,40,42,44,46,48,-1,50,52,-1,54,56,58,60,62,64,66,68,70,72,74,76,78,80,82,84,-1,-1,-1,-1,-1,-1,-1,-1,-1,-1,-1,-1,-1,-1,-1,-1,-1,-1,-1,-1,-1,-1,-1,-1,-1,-1,-1,-1,-1,-1,-1,-1,-1,-1,-1,-1],"split_conditions":[1.9545E3,2.2942112E1,1.9725E3,6.2E1,1.9515E3,8.1E1,1.9775E3,4.4E1,3.6895297E0,4.25E1,4.0619053E1,4.25E1,8.9E1,4.6E1,4.75E1,-2.085022E-1,-3.0915666E0,3.35E1,-1.4109417E1,3E0,-9.259104E0,1.5E0,5.1E1,3.927254E1,2.2947817E1,4.45E1,2.4370888E1,3.15E1,2.2966476E1,-5.2025394E0,3.85E1,7.75E1,2.386658E0,3.795012E1,1.9695E3,4.0650673E1,7.35E1,8.4E1,4.0619053E1,6.5E0,1.015E2,2.5E0,3E0,3.7940216E1,1.9745E3,3.7953682E1,2.0135E3,4.0654976E1,3.7947517E1,4.852295E0,-1.7758805E0,-8.330109E-1,-4.306641E-2,-1.5281241E1,1.2843273E1,-4.5766177E0,4.5829253E0,-6.4681296E0,7.1446915E0,2.9852521E0,-2.9358513E0,-1.6027084E1,7.180344E0,3.9312035E1,8.731309E0,5.967432E0,3.3791714E1,-5.2074704E0,4.729548E0,2.553979E0,-8.363957E0,2.5486145E0,2.8819424E1,-1.607354E1,-2.9236476E0,2.1211918E1,5.5097513E0,7.2511935E0,1.8275732E-1,-3.4153626E0,2.2396002E0,-7.0178366E0,5.9954524E-1,-3.4516563E0,6.3853064E0],"split_indices":[4,2,4,0,4,0,4,0,0,0,1,0,0,0,0,0,0,0,0,3,0,3,0,1,2,0,2,0,2,0,0,0,0,1,4,1,0,0,1,3,0,3,3,1,4,1,4,1,1,0,0,0,0,0,0,0,0,0,0,0,0,0,0,0,0,0,0,0,0,0,0,0,0,0,0,0,0,0,0,0,0,0,0,0,0],"split_type":[0,0,0,0,0,0,0,0,0,0,0,0,0,0,0,0,0,0,0,0,0,0,0,0,0,0,0,0,0,0,0,0,0,0,0,0,0,0,0,0,0,0,0,0,0,0,0,0,0,0,0,0,0,0,0,0,0,0,0,0,0,0,0,0,0,0,0,0,0,0,0,0,0,0,0,0,0,0,0,0,0,0,0,0,0],"sum_hessian":[1.26E3,1.4E1,1.246E3,3E0,1.1E1,4.05E2,8.41E2,2E0,1E0,6E0,5E0,3.35E2,7E1,3.02E2,5.39E2,1E0,1E0,3E0,3E0,4E0,1E0,1.09E2,2.26E2,1.1E1,5.9E1,9.4E1,2.08E2,2.32E2,3.07E2,1E0,2E0,2E0,2E0,3.5E1,7.4E1,6.7E1,1.59E2,2E0,9E0,1.5E1,4.4E1,6.5E1,2.9E1,2.02E2,6E0,8.2E1,1.5E2,1.29E2,1.78E2,1E0,1E0,1E0,1E0,3E0,3.2E1,4.5E1,2.9E1,5.8E1,9E0,1.06E2,5.3E1,1E0,1E0,4E0,5E0,1.4E1,1E0,2.4E1,2E1,5E1,1.5E1,2.3E1,6E0,6E0,1.96E2,3E0,3E0,8E0,7.4E1,1.29E2,2.1E1,3.1E1,9.8E1,4.2E1,1.36E2],"tree_param":{"num_deleted":"0","num_feature":"5","num_nodes":"85","size_leaf_vector":"0"}}]},"name":"gbtree"},"learner_model_param":{"base_score":"5E-1","boost_from_average":"1","num_class":"0","num_feature":"5","num_target":"1"},"objective":{"name":"reg:squarederror","reg_loss_param":{"scale_pos_weight":"1"}}},"version":[1,7,0]}